{"learner":{"attributes":{"scikit_learn":"{\"_estimator_type\": \"classifier\"}"},"feature_names":[],"feature_types":[],"gradient_booster":{"model":{"gbtree_model_param":{"num_parallel_tree":"1","num_trees":"100"},"iteration_indptr":[0,1,2,3,4,5,6,7,8,9,10,11,12,13,14,15,16,17,18,19,20,21,22,23,24,25,26,27,28,29,30,31,32,33,34,35,36,37,38,39,40,41,42,43,44,45,46,47,48,49,50,51,52,53,54,55,56,57,58,59,60,61,62,63,64,65,66,67,68,69,70,71,72,73,74,75,76,77,78,79,80,81,82,83,84,85,86,87,88,89,90,91,92,93,94,95,96,97,98,99,100],"tree_info":[0,0,0,0,0,0,0,0,0,0,0,0,0,0,0,0,0,0,0,0,0,0,0,0,0,0,0,0,0,0,0,0,0,0,0,0,0,0,0,0,0,0,0,0,0,0,0,0,0,0,0,0,0,0,0,0,0,0,0,0,0,0,0,0,0,0,0,0,0,0,0,0,0,0,0,0,0,0,0,0,0,0,0,0,0,0,0,0,0,0,0,0,0,0,0,0,0,0,0,0],"trees":[{"base_weights":[-6.715071E-3,-2.3660548E-1,2.0279691E0,-3.9566264E-1,1.8852254E0,2.2393918E0,-1.571551E-1,-5.6335336E-1,1.4011022E0,2.149009E0,-1.3820225E0,2.294355E0,-1.0680124E0,1.1495973E0,-7.032556E-1,1.5678127E0,-1.5349524E-1,2.2529314E0,-1.3974407E-1,-1.544053E-1,-5.3839358E-3,2.3446026E0,-4.108858E-1,-1.325411E-1,1.2323041E-3,7.082524E-2,2.2508219E-1,-7.716903E-2,2.3960511E-1,1.844585E-1,-1.9900471E-2,2.3046689E-1,-1.19646385E-1,2.3767094E-1,-1.19646385E-1,-1.1018701E-1,7.7735715E-2],"categories":[],"categories_nodes":[],"categories_segments":[],"categories_sizes":[],"default_left":[0,0,0,0,0,0,0,0,0,0,0,0,0,0,0,0,0,0,0,0,0,0,0,0,0,0,0,0,0,0,0,0,0,0,0,0,0],"id":0,"left_children":[1,3,5,7,9,11,-1,13,15,17,19,21,23,25,27,29,-1,31,-1,-1,-1,33,35,-1,-1,-1,-1,-1,-1,-1,-1,-1,-1,-1,-1,-1,-1],"loss_changes":[1.6612013E3,1.0776453E3,2.7788818E2,8.954104E2,1.9489362E2,6.442822E1,0E0,6.517943E2,1.2660712E2,7.923474E1,3.627983E0,4.6593506E1,1.7558589E0,9.827759E1,5.346367E2,1.1802472E2,0E0,3.861963E1,0E0,0E0,0E0,4.0329224E1,6.581142E0,0E0,0E0,0E0,0E0,0E0,0E0,0E0,0E0,0E0,0E0,0E0,0E0,0E0,0E0],"parents":[2147483647,0,0,1,1,2,2,3,3,4,4,5,5,7,7,8,8,9,9,10,10,11,11,12,12,13,13,14,14,15,15,17,17,21,21,22,22],"right_children":[2,4,6,8,10,12,-1,14,16,18,20,22,24,26,28,30,-1,32,-1,-1,-1,34,36,-1,-1,-1,-1,-1,-1,-1,-1,-1,-1,-1,-1,-1,-1],"split_conditions":[3.3436496E-2,8.7849066E-2,1.5058466E-2,1.6375769E-2,1.035768E-2,3.333392E-2,-1.571551E-1,1.563518E-2,1.5058466E-2,1.5058466E-2,3.1413775E-2,2.7952839E-2,1.696565E-2,5.273148E0,1.8212104E-2,4.2056672E-2,-1.5349524E-1,7.814813E-3,-1.3974407E-1,-1.544053E-1,-5.3839358E-3,1.0372769E-2,1.8217284E-2,-1.325411E-1,1.2323041E-3,7.082524E-2,2.2508219E-1,-7.716903E-2,2.3960511E-1,1.844585E-1,-1.9900471E-2,2.3046689E-1,-1.19646385E-1,2.3767094E-1,-1.19646385E-1,-1.1018701E-1,7.7735715E-2],"split_indices":[376,858,630,1160,1861,601,0,2014,630,630,1807,1603,0,2002,49,1870,0,425,0,0,0,1467,1025,0,0,0,0,0,0,0,0,0,0,0,0,0,0],"split_type":[0,0,0,0,0,0,0,0,0,0,0,0,0,0,0,0,0,0,0,0,0,0,0,0,0,0,0,0,0,0,0,0,0,0,0,0,0],"sum_hessian":[3.5494133E3,3.1898853E3,3.59528E2,2.9681963E3,2.2168903E2,3.399391E2,1.9588902E1,2.7154517E3,2.527446E2,2.0544458E2,1.6244455E1,3.3468353E2,5.255559E0,2.0448901E2,2.5109626E3,2.3960571E2,1.3138897E1,1.9995012E2,5.4944477E0,1.4333343E1,1.9111123E0,3.287113E2,5.972226E0,4.061114E0,1.1944451E0,1.4715565E2,5.733337E1,2.4574517E3,5.3511147E1,2.0711679E2,3.248891E1,1.9732234E2,2.6277795E0,3.2608353E2,2.6277795E0,3.8222246E0,2.1500013E0],"tree_param":{"num_deleted":"0","num_feature":"2026","num_nodes":"37","size_leaf_vector":"1"}},{"base_weights":[-7.6190857E-3,-2.206183E-1,1.7347783E0,-1.8281797E-2,-1.598757E-1,1.9129198E0,-1.4836377E-1,3.743319E-1,-1.1597501E0,1.9752918E0,-9.428713E-1,6.3157755E-1,-1.4820819E0,-1.2276913E0,2.2773554E0,2.0230556E0,-4.91129E-1,6.699144E-2,-1.3642643E-1,3.8150858E-2,1.5972523E-1,-1.5116416E-1,1.4672272E-1,-1.2943429E-1,1.6082047E-1,2.3954038E-1,7.16844E-2,2.0518704E-1,-1.1632209E-1,-9.886535E-2,7.810741E-2],"categories":[],"categories_nodes":[],"categories_segments":[],"categories_sizes":[],"default_left":[0,0,0,0,0,0,0,0,0,0,0,0,0,0,0,0,0,0,0,0,0,0,0,0,0,0,0,0,0,0,0],"id":1,"left_children":[1,3,5,7,-1,9,-1,11,13,15,17,19,21,23,25,27,29,-1,-1,-1,-1,-1,-1,-1,-1,-1,-1,-1,-1,-1,-1],"loss_changes":[1.3129546E3,8.789925E2,2.2377844E2,1.2327635E3,0E0,6.698157E1,0E0,9.7838934E2,1.671919E2,4.31792E1,6.684472E0,4.33674E2,2.3961365E1,1.3269043E2,8.611908E-1,3.465747E1,5.5874877E0,0E0,0E0,0E0,0E0,0E0,0E0,0E0,0E0,0E0,0E0,0E0,0E0,0E0,0E0],"parents":[2147483647,0,0,1,1,2,2,3,3,5,5,7,7,8,8,9,9,10,10,11,11,12,12,13,13,14,14,15,15,16,16],"right_children":[2,4,6,8,-1,10,-1,12,14,16,18,20,22,24,26,28,30,-1,-1,-1,-1,-1,-1,-1,-1,-1,-1,-1,-1,-1,-1],"split_conditions":[2.615684E-2,1.5058466E-2,1.5058466E-2,1.3631061E-2,-1.598757E-1,3.333392E-2,-1.4836377E-1,7.2087552E-3,1.2030812E-3,2.7952839E-2,8.424111E-3,4.963662E-3,1.3625006E-2,7.439434E-2,2.4222977E-2,1.0372769E-2,2.6063764E-2,6.699144E-2,-1.3642643E-1,3.8150858E-2,1.5972523E-1,-1.5116416E-1,1.4672272E-1,-1.2943429E-1,1.6082047E-1,2.3954038E-1,7.16844E-2,2.0518704E-1,-1.1632209E-1,-9.886535E-2,7.810741E-2],"split_indices":[376,630,630,1870,0,601,0,978,1673,1603,45,389,49,1912,1009,1467,1025,0,0,0,0,0,0,0,0,0,0,0,0,0,0],"split_type":[0,0,0,0,0,0,0,0,0,0,0,0,0,0,0,0,0,0,0,0,0,0,0,0,0,0,0,0,0,0,0],"sum_hessian":[3.535697E3,3.1513357E3,3.8436133E2,2.748777E3,4.0255853E2,3.6458685E2,1.9774487E1,2.0457897E3,7.029875E2,3.5709598E2,7.490865E0,1.7973837E3,2.4840599E2,6.899913E2,1.2996246E1,3.5048834E2,6.607645E0,1.4296073E0,6.061258E0,1.428784E3,3.6859964E2,2.4642365E2,1.9823486E0,6.7467804E2,1.5313231E1,1.1584871E1,1.4113759E0,3.4769998E2,2.788359E0,4.910256E0,1.6973888E0],"tree_param":{"num_deleted":"0","num_feature":"2026","num_nodes":"31","size_leaf_vector":"1"}},{"base_weights":[-8.309688E-3,-2.0839939E-1,1.5062219E0,-3.488017E-1,1.5550319E0,1.6651222E0,-1.4155318E-1,-4.9388576E-1,1.1584314E0,1.7661002E0,-1.2716041E0,1.7582055E0,-9.4763976E-1,4.1511306E-1,-7.2081614E-1,1.2956576E0,-1.3694292E-1,1.8449434E0,-1.2379553E-1,-1.4313106E-1,-2.2144318E-3,1.786284E0,-1.17044225E-1,1.19746044E-1,-1.4502957E-1,6.1821528E-2,-1.4911893E-1,-7.867187E-2,1.9859642E-1,1.567559E-1,4.469134E-3,1.9177856E-1,-3.912095E-2,1.8186356E-1,-5.888885E-2],"categories":[],"categories_nodes":[],"categories_segments":[],"categories_sizes":[],"default_left":[0,0,0,0,0,0,0,0,0,0,0,0,0,0,0,0,0,0,0,0,0,0,0,0,0,0,0,0,0,0,0,0,0,0,0],"id":2,"left_children":[1,3,5,7,9,11,-1,13,15,17,19,21,23,25,27,29,-1,31,-1,-1,-1,33,-1,-1,-1,-1,-1,-1,-1,-1,-1,-1,-1,-1,-1],"loss_changes":[1.0630293E3,7.6769183E2,1.9240686E2,6.283419E2,1.386831E2,9.619971E1,0E0,5.406299E2,8.9319336E1,5.2783936E1,3.2550793E0,3.29834E1,1.6855183E1,2.0377315E2,3.7554114E2,8.15264E1,0E0,3.4657288E1,0E0,0E0,0E0,2.969458E1,0E0,0E0,0E0,0E0,0E0,0E0,0E0,0E0,0E0,0E0,0E0,0E0,0E0],"parents":[2147483647,0,0,1,1,2,2,3,3,4,4,5,5,7,7,8,8,9,9,10,10,11,11,12,12,13,13,14,14,15,15,17,17,21,21],"right_children":[2,4,6,8,10,12,-1,14,16,18,20,22,24,26,28,30,-1,32,-1,-1,-1,34,-1,-1,-1,-1,-1,-1,-1,-1,-1,-1,-1,-1,-1],"split_conditions":[5.996042E-3,8.7849066E-2,1.5058466E-2,1.0008513E-2,1.035768E-2,2.0075405E-2,-1.4155318E-1,2.7272727E-2,1.5058466E-2,1.5058466E-2,3.1413775E-2,1.0372769E-2,5.759979E-3,1.5058466E-2,2.3162479E-2,3.2244195E-4,-1.3694292E-1,8.101709E-3,-1.2379553E-1,-1.4313106E-1,-2.2144318E-3,1.0010993E-2,-1.17044225E-1,1.19746044E-1,-1.4502957E-1,6.1821528E-2,-1.4911893E-1,-7.867187E-2,1.9859642E-1,1.567559E-1,4.469134E-3,1.9177856E-1,-3.912095E-2,1.8186356E-1,-5.888885E-2],"split_indices":[376,858,630,1160,1861,1769,0,2014,630,630,1807,1467,148,630,49,2012,0,692,0,0,0,441,0,0,0,0,0,0,0,0,0,0,0,0,0],"split_type":[0,0,0,0,0,0,0,0,0,0,0,0,0,0,0,0,0,0,0,0,0,0,0,0,0,0,0,0,0,0,0,0,0,0,0],"sum_hessian":[3.5058235E3,3.0974692E3,4.083543E2,2.8697827E3,2.276865E2,3.8769928E2,2.065502E1,2.6184106E3,2.5137204E2,2.1221532E2,1.5471173E1,3.7467792E2,1.3021375E1,5.229276E2,2.095483E3,2.3889116E2,1.2480881E1,2.0716403E2,5.0512953E0,1.3588712E1,1.8824612E0,3.7150616E2,3.1717556E0,2.2095942E0,1.081178E1,4.731886E2,4.9738995E1,2.0463689E3,4.9114056E1,1.960303E2,4.286085E1,2.0076648E2,6.3975425E0,3.6674515E2,4.761011E0],"tree_param":{"num_deleted":"0","num_feature":"2026","num_nodes":"35","size_leaf_vector":"1"}},{"base_weights":[-8.3374325E-3,1.7746092E-1,-1.4635825E-1,4.846348E-1,-7.518368E-1,7.032793E-1,-1.4048667E0,-1.0450462E0,1.2366836E0,8.065844E-1,-1.3084065E0,-1.4470252E0,8.856523E-1,-1.1095175E0,2.0560303E0,1.6512218E0,-3.3493254E-1,9.060069E-2,-1.1643704E-1,-1.3873778E-1,1.549675E-1,-1.4849368E-1,3.521912E-2,1.24474086E-1,-1.2487129E-2,-1.1688223E-1,1.7515846E-1,2.151073E-1,7.121825E-2,1.6908789E-1,-5.185007E-2,-7.978977E-2,1.17366634E-1],"categories":[],"categories_nodes":[],"categories_segments":[],"categories_sizes":[],"default_left":[0,0,0,0,0,0,0,0,0,0,0,0,0,0,0,0,0,0,0,0,0,0,0,0,0,0,0,0,0,0,0,0,0],"id":3,"left_children":[1,3,-1,5,7,9,11,13,15,17,19,21,23,25,27,29,31,-1,-1,-1,-1,-1,-1,-1,-1,-1,-1,-1,-1,-1,-1,-1,-1],"loss_changes":[9.3559656E2,8.7629846E2,0E0,9.5401117E2,4.4598892E2,4.3087463E2,2.4417114E1,1.352821E2,6.4704315E1,3.866693E2,2.5037476E1,1.6595886E1,1.9517574E0,1.12733826E2,2.4327087E-1,7.5955048E0,1.5870947E1,0E0,0E0,0E0,0E0,0E0,0E0,0E0,0E0,0E0,0E0,0E0,0E0,0E0,0E0,0E0,0E0],"parents":[2147483647,0,0,1,1,3,3,4,4,5,5,6,6,7,7,8,8,9,9,10,10,11,11,12,12,13,13,14,14,15,15,16,16],"right_children":[2,4,-1,6,8,10,12,14,16,18,20,22,24,26,28,30,32,-1,-1,-1,-1,-1,-1,-1,-1,-1,-1,-1,-1,-1,-1,-1,-1],"split_conditions":[1.5058466E-2,1.3631061E-2,-1.4635825E-1,2.1771502E-2,2.24252E-2,4.8419423E-2,7.502983E-2,1.2030812E-3,1.1716692E-2,1.7969975E-2,2.7969006E-2,4.777666E-2,6.265587E-3,3.1197384E-2,2.4222977E-2,3.948121E-2,6.360641E-2,9.060069E-2,-1.1643704E-1,-1.3873778E-1,1.549675E-1,-1.4849368E-1,3.521912E-2,1.24474086E-1,-1.2487129E-2,-1.1688223E-1,1.7515846E-1,2.151073E-1,7.121825E-2,1.6908789E-1,-5.185007E-2,-7.978977E-2,1.17366634E-1],"split_indices":[630,1870,0,1861,376,43,1160,1673,45,978,1738,1814,887,504,1009,1014,1456,0,0,0,0,0,0,0,0,0,0,0,0,0,0,0,0],"split_type":[0,0,0,0,0,0,0,0,0,0,0,0,0,0,0,0,0,0,0,0,0,0,0,0,0,0,0,0,0,0,0,0,0],"sum_hessian":[3.4583145E3,3.067544E3,3.907705E2,2.3058406E3,7.617035E2,2.067255E3,2.3858557E2,6.6423566E2,9.746779E1,1.9668512E3,1.00403656E2,2.3463521E2,3.9503634E0,6.513366E2,1.2899058E1,7.7084816E1,2.0382969E1,1.8729147E3,9.3936615E1,9.820474E1,2.1989086E0,2.2996428E2,4.67093E0,2.7436368E0,1.2067267E0,6.386894E2,1.26472435E1,1.1486033E1,1.4130249E0,7.591792E1,1.1668973E0,1.595709E1,4.425879E0],"tree_param":{"num_deleted":"0","num_feature":"2026","num_nodes":"33","size_leaf_vector":"1"}},{"base_weights":[-9.009864E-3,1.6020466E-1,-1.3999553E-1,4.241205E-1,-7.412603E-1,6.2156236E-1,-1.3345522E0,-1.0149987E0,1.0963755E0,7.102856E-1,-1.4735414E0,-1.3744442E0,8.199929E-1,-1.0893259E0,1.5706943E0,1.5011714E0,-3.771942E-1,8.009465E-2,-1.10084556E-1,-1.5420376E-1,1.5673898E-1,-1.4106224E-1,2.5852505E-2,1.304679E-1,5.0336695E-3,-1.15015544E-1,1.8058847E-1,1.9009572E-1,-9.805923E-2,1.5445857E-1,-5.6609284E-2,4.668436E-2,-1.2399381E-1],"categories":[],"categories_nodes":[],"categories_segments":[],"categories_sizes":[],"default_left":[0,0,0,0,0,0,0,0,0,0,0,0,0,0,0,0,0,0,0,0,0,0,0,0,0,0,0,0,0,0,0,0,0],"id":4,"left_children":[1,3,-1,5,7,9,11,13,15,17,19,21,23,25,27,29,31,-1,-1,-1,-1,-1,-1,-1,-1,-1,-1,-1,-1,-1,-1,-1,-1],"loss_changes":[8.026123E2,7.236171E2,0E0,8.1765356E2,3.4763266E2,3.94305E2,2.1562012E1,1.1703717E2,5.4126358E1,3.3425952E2,2.0387756E1,1.4177429E1,1.7802958E0,1.0490924E2,1.6337257E1,7.2144012E0,1.5251582E1,0E0,0E0,0E0,0E0,0E0,0E0,0E0,0E0,0E0,0E0,0E0,0E0,0E0,0E0,0E0,0E0],"parents":[2147483647,0,0,1,1,3,3,4,4,5,5,6,6,7,7,8,8,9,9,10,10,11,11,12,12,13,13,14,14,15,15,16,16],"right_children":[2,4,-1,6,8,10,12,14,16,18,20,22,24,26,28,30,32,-1,-1,-1,-1,-1,-1,-1,-1,-1,-1,-1,-1,-1,-1,-1,-1],"split_conditions":[1.5058466E-2,3.538673E-2,-1.3999553E-1,2.1771502E-2,2.1378895E-2,5.8452748E-2,7.790523E-2,7.439434E-2,8.424111E-3,7.2087552E-3,1.5256225E-1,4.777666E-2,5.0731707E-2,1.2030812E-3,1.4694564E-1,1.2021295E-2,2.375E3,8.009465E-2,-1.10084556E-1,-1.5420376E-1,1.5673898E-1,-1.4106224E-1,2.5852505E-2,1.304679E-1,5.0336695E-3,-1.15015544E-1,1.8058847E-1,1.9009572E-1,-9.805923E-2,1.5445857E-1,-5.6609284E-2,4.668436E-2,-1.2399381E-1],"split_indices":[630,1870,0,1861,376,233,1160,1912,45,978,1153,1814,2014,1673,1025,623,2000,0,0,0,0,0,0,0,0,0,0,0,0,0,0,0,0],"split_type":[0,0,0,0,0,0,0,0,0,0,0,0,0,0,0,0,0,0,0,0,0,0,0,0,0,0,0,0,0,0,0,0,0],"sum_hessian":[3.4080762E3,3.0392258E3,3.688502E2,2.3513628E3,6.878631E2,2.1146077E3,2.3675523E2,5.990717E2,8.879142E1,2.0293307E3,8.527689E1,2.3280681E2,3.9484267E0,5.828948E2,1.6176926E1,6.964179E1,1.9149628E1,1.933121E3,9.620965E1,8.388042E1,1.3964779E0,2.2789403E2,4.912781E0,1.9961922E0,1.9522345E0,5.714903E2,1.1404497E1,1.4548528E1,1.6283978E0,6.845697E1,1.1848207E0,9.91171E0,9.237919E0],"tree_param":{"num_deleted":"0","num_feature":"2026","num_nodes":"33","size_leaf_vector":"1"}},{"base_weights":[-9.662114E-3,-1.778087E-1,1.2592059E0,-3.02269E-1,1.2806866E0,1.3769007E0,-1.24303125E-1,-4.2889112E-1,9.7471094E-1,1.4557636E0,-1.1199108E0,1.4418716E0,-1.3212492E-1,1.5802954E-1,-6.7401904E-1,1.1391535E0,-7.8286594E-1,1.5186754E0,-1.0968486E-1,-1.2697522E-1,7.106349E-3,1.468097E0,-1.1743436E0,3.0329883E-2,-1.323747E-1,-7.2625235E-2,2.023176E-1,1.2314254E-1,-1.17058516E-1,-1.24904685E-1,1.300552E-1,1.5911262E-1,-3.937021E-2,1.4910223E-1,-1.2457609E-1,-1.3272057E-1,-3.8030613E-2],"categories":[],"categories_nodes":[],"categories_segments":[],"categories_sizes":[],"default_left":[0,0,0,0,0,0,0,0,0,0,0,0,0,0,0,0,0,0,0,0,0,0,0,0,0,0,0,0,0,0,0,0,0,0,0,0,0],"id":5,"left_children":[1,3,5,7,9,11,-1,13,15,17,19,21,-1,23,25,27,29,31,-1,-1,-1,33,35,-1,-1,-1,-1,-1,-1,-1,-1,-1,-1,-1,-1,-1,-1],"loss_changes":[7.14733E2,5.3732385E2,1.1715057E2,4.4122247E2,9.945624E1,6.7616455E1,0E0,3.5703915E2,7.205997E1,3.6573456E1,3.014532E0,2.6870972E1,0E0,1.5790698E2,2.4804565E2,4.951773E1,2.2661926E1,3.0077667E1,0E0,0E0,0E0,2.4461731E1,4.2066574E-3,0E0,0E0,0E0,0E0,0E0,0E0,0E0,0E0,0E0,0E0,0E0,0E0,0E0,0E0],"parents":[2147483647,0,0,1,1,2,2,3,3,4,4,5,5,7,7,8,8,9,9,10,10,11,11,13,13,14,14,15,15,16,16,17,17,21,21,22,22],"right_children":[2,4,6,8,10,12,-1,14,16,18,20,22,-1,24,26,28,30,32,-1,-1,-1,34,36,-1,-1,-1,-1,-1,-1,-1,-1,-1,-1,-1,-1,-1,-1],"split_conditions":[5.996042E-3,8.3068766E-2,1.5058466E-2,1.0008513E-2,1.035768E-2,3.4846931E-3,-1.24303125E-1,3.3103447E-2,4.723344E-2,1.5058466E-2,3.617098E-2,9.987615E-3,-1.3212492E-1,1.5058466E-2,5.0882697E-3,1.5058466E-2,4.6338532E-2,8.101709E-3,-1.0968486E-1,-1.2697522E-1,7.106349E-3,6.3250996E-2,1.4475675E-2,3.0329883E-2,-1.323747E-1,-7.2625235E-2,2.023176E-1,1.2314254E-1,-1.17058516E-1,-1.24904685E-1,1.300552E-1,1.5911262E-1,-3.937021E-2,1.4910223E-1,-1.2457609E-1,-1.3272057E-1,-3.8030613E-2],"split_indices":[376,858,630,1160,1861,196,0,2014,1794,630,1807,1983,0,630,48,630,1456,692,0,0,0,382,148,0,0,0,0,0,0,0,0,0,0,0,0,0,0],"split_type":[0,0,0,0,0,0,0,0,0,0,0,0,0,0,0,0,0,0,0,0,0,0,0,0,0,0,0,0,0,0,0,0,0,0,0,0,0],"sum_hessian":[3.347908E3,2.956925E3,3.9098294E2,2.7251663E3,2.3175859E2,3.7384842E2,1.713453E1,2.4799272E3,2.4523918E2,2.1637204E2,1.538655E1,3.6551257E2,8.335861E0,7.3071027E2,1.7492169E3,2.2457896E2,2.0660215E1,2.115629E2,4.809147E0,1.3608289E1,1.7782614E0,3.6231946E2,3.1931038E0,6.661938E2,6.451649E1,1.7167024E3,3.2514545E1,2.1640082E2,8.178155E0,1.7209858E1,3.4503562E0,2.0400223E2,7.5606713E0,3.5973123E2,2.588232E0,2.1145597E0,1.0785441E0],"tree_param":{"num_deleted":"0","num_feature":"2026","num_nodes":"37","size_leaf_vector":"1"}},{"base_weights":[-9.290943E-3,1.3791777E-1,-1.3180035E-1,2.6807135E-1,-1.4000037E0,4.072098E-1,-1.2601739E0,-1.4139097E0,2.3317806E-2,5.306438E-1,-1.1355008E0,-1.2916286E0,1.2129878E-1,-1.4209899E0,-7.800687E-4,6.6114925E-2,-7.908979E-2,-1.228011E-1,1.09477535E-1,-1.3184854E-1,8.353119E-2,-1.4289092E-1,-3.8486555E-2],"categories":[],"categories_nodes":[],"categories_segments":[],"categories_sizes":[],"default_left":[0,0,0,0,0,0,0,0,0,0,0,0,0,0,0,0,0,0,0,0,0,0,0],"id":6,"left_children":[1,3,-1,5,7,9,11,13,-1,15,17,19,-1,21,-1,-1,-1,-1,-1,-1,-1,-1,-1],"loss_changes":[6.3305695E2,5.916237E2,0E0,5.797718E2,5.5676575E0,4.762008E2,1.9269775E1,2.2669983E0,0E0,3.9948364E2,3.9586166E1,1.3965057E1,0E0,1.3182068E0,0E0,0E0,0E0,0E0,0E0,0E0,0E0,0E0,0E0],"parents":[2147483647,0,0,1,1,3,3,4,4,5,5,6,6,7,7,9,9,10,10,11,11,13,13],"right_children":[2,4,-1,6,8,10,12,14,-1,16,18,20,-1,22,-1,-1,-1,-1,-1,-1,-1,-1,-1],"split_conditions":[1.5058466E-2,9.987615E-3,-1.3180035E-1,2.1771502E-2,2.9066684E-2,6.150783E-2,2.106325E-1,1.4255245E-1,2.3317806E-2,4.0946856E-2,2.0865068E-2,9.463549E-2,1.2129878E-1,8.768386E-2,-7.800687E-4,6.6114925E-2,-7.908979E-2,-1.228011E-1,1.09477535E-1,-1.3184854E-1,8.353119E-2,-1.4289092E-1,-3.8486555E-2],"split_indices":[630,1983,0,1861,1246,491,514,1486,0,1788,858,53,0,1493,0,0,0,0,0,0,0,0,0],"split_type":[0,0,0,0,0,0,0,0,0,0,0,0,0,0,0,0,0,0,0,0,0,0,0],"sum_hessian":[3.2840369E3,2.952791E3,3.3124597E2,2.7231572E3,2.2963383E2,2.4965896E3,2.2656746E2,2.2782822E2,1.8056198E0,2.3122407E3,1.8434889E2,2.2419382E2,2.373645E0,2.2667624E2,1.1519699E0,2.1048787E3,2.0736208E2,1.7743828E2,6.9106164E0,2.2177359E2,2.4202223E0,2.2458066E2,2.0955899E0],"tree_param":{"num_deleted":"0","num_feature":"2026","num_nodes":"23","size_leaf_vector":"1"}},{"base_weights":[-9.85506E-3,-1.5244398E-1,1.2081926E0,-2.3762155E-2,-1.2796873E-1,1.3049074E0,-1.1527578E-1,2.099687E-1,-9.1972166E-1,1.3394117E0,-9.0469193E-1,3.7647843E-1,-1.1960794E0,-9.8782307E-1,1.807923E0,1.3748446E0,-5.0702846E-1,-1.15492575E-1,8.979586E-3,5.0645646E-2,-8.1257366E-2,-1.2449507E-1,8.4378384E-2,-1.0496711E-1,1.6601494E-1,2.2217469E-1,-8.592718E-2,1.3980548E-1,-1.118021E-1,-1.04491375E-1,4.503452E-2],"categories":[],"categories_nodes":[],"categories_segments":[],"categories_sizes":[],"default_left":[0,0,0,0,0,0,0,0,0,0,0,0,0,0,0,0,0,0,0,0,0,0,0,0,0,0,0,0,0,0,0],"id":7,"left_children":[1,3,5,7,-1,9,-1,11,13,15,17,19,21,23,25,27,29,-1,-1,-1,-1,-1,-1,-1,-1,-1,-1,-1,-1,-1,-1],"loss_changes":[5.619404E2,4.2010376E2,7.89263E1,5.4479816E2,0E0,2.6080933E1,0E0,4.835285E2,1.01769226E2,2.1736328E1,1.5003424E0,2.8565836E2,2.2854614E1,8.785144E1,1.6770542E1,1.98349E1,3.964783E0,0E0,0E0,0E0,0E0,0E0,0E0,0E0,0E0,0E0,0E0,0E0,0E0,0E0,0E0],"parents":[2147483647,0,0,1,1,2,2,3,3,5,5,7,7,8,8,9,9,10,10,11,11,12,12,13,13,14,14,15,15,16,16],"right_children":[2,4,6,8,-1,10,-1,12,14,16,18,20,22,24,26,28,30,-1,-1,-1,-1,-1,-1,-1,-1,-1,-1,-1,-1,-1,-1],"split_conditions":[3.3436496E-2,1.5058466E-2,1.5058466E-2,1.4807503E-3,-1.2796873E-1,3.333392E-2,-1.1527578E-1,1.035768E-2,8.128773E-2,2.7952839E-2,3.2847594E-2,4.031852E-2,3.9655276E-2,1.2030812E-3,9.987615E-3,1.0372769E-2,1.8217284E-2,-1.15492575E-1,8.979586E-3,5.0645646E-2,-8.1257366E-2,-1.2449507E-1,8.4378384E-2,-1.0496711E-1,1.6601494E-1,2.2217469E-1,-8.592718E-2,1.3980548E-1,-1.118021E-1,-1.04491375E-1,4.503452E-2],"split_indices":[376,630,630,2012,0,601,0,1861,1069,1603,497,1788,1388,1673,1983,1467,1025,0,0,0,0,0,0,0,0,0,0,0,0,0,0],"split_type":[0,0,0,0,0,0,0,0,0,0,0,0,0,0,0,0,0,0,0,0,0,0,0,0,0,0,0,0,0,0,0],"sum_hessian":[3.2334307E3,2.895364E3,3.380666E2,2.599622E3,2.9574194E2,3.251926E2,1.2874001E1,2.0623723E3,5.3724976E2,3.2058032E2,4.612257E0,1.8446534E3,2.1771884E2,5.247853E2,1.246452E1,3.147949E2,5.7854395E0,3.5561328E0,1.056124E0,1.6633977E3,1.8125574E2,2.1300534E2,4.7135067E0,5.133976E2,1.1387705E1,1.0934938E1,1.5295819E0,3.123261E2,2.4687684E0,3.6457145E0,2.139725E0],"tree_param":{"num_deleted":"0","num_feature":"2026","num_nodes":"31","size_leaf_vector":"1"}},{"base_weights":[-1.0075981E-2,1.1328327E-1,-1.2441689E-1,2.2612341E-1,-1.331173E0,3.435656E-1,-1.186103E0,-1.3419657E0,3.1761196E-2,4.5032448E-1,-1.0679876E0,-1.2159579E0,1.2472607E-1,-2.4179879E-1,-1.3530256E0,5.195113E-2,-1.3878356E-1,-1.1499633E-1,1.2993263E-1,-1.2410094E-1,1.2050078E-1,-4.71867E-2,1.3960056E-2,-1.3576175E-1,-2.6581556E-2],"categories":[],"categories_nodes":[],"categories_segments":[],"categories_sizes":[],"default_left":[0,0,0,0,0,0,0,0,0,0,0,0,0,0,0,0,0,0,0,0,0,0,0,0,0],"id":8,"left_children":[1,3,-1,5,7,9,11,13,-1,15,17,19,-1,21,23,-1,-1,-1,-1,-1,-1,-1,-1,-1,-1],"loss_changes":[4.8177042E2,4.6924738E2,0E0,4.4315472E2,4.13855E0,3.7199243E2,1.6422333E1,2.1970215E0,0E0,2.9229385E2,3.519165E1,1.3819092E1,0E0,3.5389096E-1,6.6342163E-1,0E0,0E0,0E0,0E0,0E0,0E0,0E0,0E0,0E0,0E0],"parents":[2147483647,0,0,1,1,3,3,4,4,5,5,6,6,7,7,9,9,10,10,11,11,13,13,14,14],"right_children":[2,4,-1,6,8,10,12,14,-1,16,18,20,-1,22,24,-1,-1,-1,-1,-1,-1,-1,-1,-1,-1],"split_conditions":[1.5058466E-2,1.3098954E-2,-1.2441689E-1,7.2087552E-3,7.980534E-2,6.150783E-2,2.3162479E-2,3.288889E0,3.1761196E-2,5.5336006E-2,5.763592E-3,1.7816103E-1,1.2472607E-1,3.999649E-3,3.940489E-2,5.195113E-2,-1.3878356E-1,-1.1499633E-1,1.2993263E-1,-1.2410094E-1,1.2050078E-1,-4.71867E-2,1.3960056E-2,-1.3576175E-1,-2.6581556E-2],"split_indices":[630,1983,0,978,1246,491,49,2002,0,233,1866,1007,0,1025,201,0,0,0,0,0,0,0,0,0,0],"split_type":[0,0,0,0,0,0,0,0,0,0,0,0,0,0,0,0,0,0,0,0,0,0,0,0,0],"sum_hessian":[3.1626868E3,2.8761013E3,2.8658533E2,2.6684844E3,2.076171E2,2.4643066E3,2.0417757E2,2.0645178E2,1.1653142E0,2.291664E3,1.7264262E2,2.021971E2,1.9804566E0,2.282338E0,2.0416945E2,2.209228E3,8.2436134E1,1.6736143E2,5.281186E0,2.0060864E2,1.5884557E0,1.2756435E0,1.0066944E0,2.0306306E2,1.1063752E0],"tree_param":{"num_deleted":"0","num_feature":"2026","num_nodes":"25","size_leaf_vector":"1"}},{"base_weights":[-1.0510968E-2,-1.4683062E-1,1.0603635E0,-2.538395E-1,1.1719611E0,1.1448147E0,-1.104844E-1,-3.6623976E-1,8.42312E-1,1.2797238E0,-1.2643062E-1,1.220512E0,-9.151913E-1,-4.1776115E-1,1.7907375E0,9.6790355E-1,-9.9927425E-1,1.3332393E0,-1.2673561E-1,1.2456665E0,-1.1300395E-1,8.410891E-2,-1.3400783E-1,6.148543E-2,-5.1590838E-2,1.8596445E-1,-8.2570456E-2,1.0532949E-1,-1.12617455E-1,-1.3629663E-1,8.625052E-2,1.3858207E-1,-7.963787E-2,1.2897688E-1,-2.2995623E-2],"categories":[],"categories_nodes":[],"categories_segments":[],"categories_sizes":[],"default_left":[0,0,0,0,0,0,0,0,0,0,0,0,0,0,0,0,0,0,0,0,0,0,0,0,0,0,0,0,0,0,0,0,0,0,0],"id":9,"left_children":[1,3,5,7,9,11,-1,13,15,17,-1,19,21,23,25,27,29,31,-1,33,-1,-1,-1,-1,-1,-1,-1,-1,-1,-1,-1,-1,-1,-1,-1],"loss_changes":[4.5404507E2,3.896551E2,6.548773E1,3.1482825E2,5.6028137E1,5.3906403E1,0E0,2.581306E2,5.5948944E1,2.8810242E1,0E0,2.0739868E1,1.050732E1,2.2965039E2,1.1310791E1,4.107138E1,1.1785216E1,2.29794E1,0E0,2.138034E1,0E0,0E0,0E0,0E0,0E0,0E0,0E0,0E0,0E0,0E0,0E0,0E0,0E0,0E0,0E0],"parents":[2147483647,0,0,1,1,2,2,3,3,4,4,5,5,7,7,8,8,9,9,11,11,12,12,13,13,14,14,15,15,16,16,17,17,19,19],"right_children":[2,4,6,8,10,12,-1,14,16,18,-1,20,22,24,26,28,30,32,-1,34,-1,-1,-1,-1,-1,-1,-1,-1,-1,-1,-1,-1,-1,-1,-1],"split_conditions":[5.996042E-3,8.7849066E-2,1.5058466E-2,1.0008513E-2,1.6201405E-2,2.0075405E-2,-1.104844E-1,9.489718E-2,5.9420586E-2,7.1579404E-2,-1.2643062E-1,1.0372769E-2,5.759979E-3,1.4925373E-2,9.996217E-3,1.9881932E-2,4.3209672E-2,6.2966816E-2,-1.2673561E-1,3.3575684E-2,-1.1300395E-1,8.410891E-2,-1.3400783E-1,6.148543E-2,-5.1590838E-2,1.8596445E-1,-8.2570456E-2,1.0532949E-1,-1.12617455E-1,-1.3629663E-1,8.625052E-2,1.3858207E-1,-7.963787E-2,1.2897688E-1,-2.2995623E-2],"split_indices":[376,858,630,1160,602,1769,0,1559,1794,38,0,1467,148,2014,1132,1010,19,692,0,1240,0,0,0,0,0,0,0,0,0,0,0,0,0,0,0],"split_type":[0,0,0,0,0,0,0,0,0,0,0,0,0,0,0,0,0,0,0,0,0,0,0,0,0,0,0,0,0,0,0,0,0,0,0],"sum_hessian":[3.1082307E3,2.7580063E3,3.5022446E2,2.55176E3,2.0624635E2,3.3753076E2,1.2693687E1,2.3150398E3,2.367202E2,1.9796457E2,8.281786E0,3.2596048E2,1.1570272E1,2.2618206E3,5.321934E1,2.2205128E2,1.46689205E1,1.9435756E2,3.607001E0,3.229742E2,2.9862704E0,2.0630493E0,9.507223E0,1.9586313E2,2.0659573E3,5.213554E1,1.0837989E0,2.1382887E2,8.2224045E0,1.2495828E1,2.1730926E0,1.9001526E2,4.342308E0,3.1372382E2,9.25039E0],"tree_param":{"num_deleted":"0","num_feature":"2026","num_nodes":"35","size_leaf_vector":"1"}},{"base_weights":[-9.610896E-3,1.0100158E-1,-1.2046969E-1,3.0075997E-1,-5.995614E-1,4.2110962E-1,-1.3399065E0,-8.0278796E-1,7.709994E-1,5.018707E-1,-1.2462974E0,-1.3460492E0,-2.2600796E-2,-8.987595E-1,1.0792214E0,1.1415526E0,-4.7790423E-1,5.702513E-2,-1.290043E-1,-1.4073633E-1,1.19384944E-1,-1.3521351E-1,-2.8940378E-2,-9.6034534E-2,1.494842E-1,1.471289E-1,-1.0513427E-1,1.1873714E-1,-7.273447E-2,-8.131216E-2,8.583278E-2],"categories":[],"categories_nodes":[],"categories_segments":[],"categories_sizes":[],"default_left":[0,0,0,0,0,0,0,0,0,0,0,0,0,0,0,0,0,0,0,0,0,0,0,0,0,0,0,0,0,0,0],"id":10,"left_children":[1,3,-1,5,7,9,11,13,15,17,19,21,-1,23,25,27,29,-1,-1,-1,-1,-1,-1,-1,-1,-1,-1,-1,-1,-1,-1],"loss_changes":[4.0283322E2,3.905202E2,0E0,4.2924963E2,1.7308806E2,2.7310736E2,7.126465E-1,9.845624E1,3.778543E1,2.3730734E2,3.853247E1,5.578308E-1,0E0,7.721869E1,2.380173E1,6.2028503E0,9.261091E0,0E0,0E0,0E0,0E0,0E0,0E0,0E0,0E0,0E0,0E0,0E0,0E0,0E0,0E0],"parents":[2147483647,0,0,1,1,3,3,4,4,5,5,6,6,7,7,8,8,9,9,10,10,11,11,13,13,14,14,15,15,16,16],"right_children":[2,4,-1,6,8,10,12,14,16,18,20,22,-1,24,26,28,30,-1,-1,-1,-1,-1,-1,-1,-1,-1,-1,-1,-1,-1,-1],"split_conditions":[1.5058466E-2,1.3631061E-2,-1.2046969E-1,1.3835987E-2,2.24252E-2,2.023824E-2,2.9678556E-1,1.13022886E-1,1.1716692E-2,5.8452748E-2,1.3625006E-2,1.1704886E-1,-2.2600796E-2,1.2030812E-3,7.742637E-2,3.948121E-2,6.671934E-2,5.702513E-2,-1.290043E-1,-1.4073633E-1,1.19384944E-1,-1.3521351E-1,-2.8940378E-2,-9.6034534E-2,1.494842E-1,1.471289E-1,-1.0513427E-1,1.1873714E-1,-7.273447E-2,-8.131216E-2,8.583278E-2],"split_indices":[630,1870,0,1017,376,1334,1851,743,45,233,49,1310,0,1673,803,1014,1456,0,0,0,0,0,0,0,0,0,0,0,0,0,0],"split_type":[0,0,0,0,0,0,0,0,0,0,0,0,0,0,0,0,0,0,0,0,0,0,0,0,0,0,0,0,0,0,0],"sum_hessian":[3.045427E3,2.788271E3,2.5715594E2,2.1700688E3,6.1820233E2,2.0224565E3,1.4761217E2,5.387333E2,7.946904E1,1.9296908E3,9.276582E1,1.4659535E2,1.0168257E0,5.1309106E2,2.5642208E1,6.135176E1,1.8117281E1,1.859416E3,7.027476E1,8.741884E1,5.3469825E0,1.454778E2,1.1175528E0,5.0080447E2,1.228659E1,2.191824E1,3.7239692E0,6.0239567E1,1.1121957E0,1.4796741E1,3.3205411E0],"tree_param":{"num_deleted":"0","num_feature":"2026","num_nodes":"31","size_leaf_vector":"1"}},{"base_weights":[-1.0020756E-2,-1.2420958E-1,1.0454615E0,-2.182542E-1,1.0590502E0,1.1175482E0,-1.038988E-1,-3.2368246E-1,7.928925E-1,1.1708562E0,-9.628165E-1,1.1628261E0,-3.30782E-1,-3.7903735E-1,1.5416608E0,9.3445385E-1,-6.414426E-1,1.2331719E0,-8.636297E-1,8.038051E-3,-1.0983705E-1,1.1909992E0,-9.462191E-1,-1.1587158E0,1.0468829E-1,-4.263242E-2,1.5392472E-1,1.7081074E-1,-6.2313326E-2,1.0202203E-1,-8.344933E-2,-1.1367842E-1,1.1805292E-1,1.277408E-1,-7.138231E-2,-1.3163146E-1,2.0444429E-2,1.2118664E-1,-9.173196E-2,-1.2952359E-1,-4.772808E-3,-1.419683E-1,-6.7620943E-3],"categories":[],"categories_nodes":[],"categories_segments":[],"categories_sizes":[],"default_left":[0,0,0,0,0,0,0,0,0,0,0,0,0,0,0,0,0,0,0,0,0,0,0,0,0,0,0,0,0,0,0,0,0,0,0,0,0,0,0,0,0,0,0],"id":11,"left_children":[1,3,5,7,9,11,-1,13,15,17,19,21,23,25,27,29,31,33,35,-1,-1,37,39,41,-1,-1,-1,-1,-1,-1,-1,-1,-1,-1,-1,-1,-1,-1,-1,-1,-1,-1,-1],"loss_changes":[3.5933743E2,2.9960678E2,4.489673E1,2.660253E2,4.594345E1,1.8865448E1,0E0,2.3377458E2,4.845485E1,2.4939575E1,1.634922E0,1.7377502E1,1.1845459E1,1.9968115E2,2.4587692E1,3.3458633E1,2.098447E1,1.6684357E1,3.2594252E0,0E0,0E0,1.3004974E1,1.243494E0,1.6970501E0,0E0,0E0,0E0,0E0,0E0,0E0,0E0,0E0,0E0,0E0,0E0,0E0,0E0,0E0,0E0,0E0,0E0,0E0,0E0],"parents":[2147483647,0,0,1,1,2,2,3,3,4,4,5,5,7,7,8,8,9,9,10,10,11,11,12,12,13,13,14,14,15,15,16,16,17,17,18,18,21,21,22,22,23,23],"right_children":[2,4,6,8,10,12,-1,14,16,18,20,22,24,26,28,30,32,34,36,-1,-1,38,40,42,-1,-1,-1,-1,-1,-1,-1,-1,-1,-1,-1,-1,-1,-1,-1,-1,-1,-1,-1],"split_conditions":[3.4726728E-2,8.694277E-2,1.5058466E-2,1.7152797E-2,1.8025113E-2,6.993594E-2,-1.038988E-1,9.8500036E-2,4.1282307E-2,1.781186E-2,3.6454774E-2,3.350765E-2,1.905931E-2,1.8212104E-2,8.424111E-3,1.3017799E-1,4.6338532E-2,6.2966816E-2,6.99659E-3,8.038051E-3,-1.0983705E-1,5.333909E-2,4.957455E-2,9.6326225E-2,1.0468829E-1,-4.263242E-2,1.5392472E-1,1.7081074E-1,-6.2313326E-2,1.0202203E-1,-8.344933E-2,-1.1367842E-1,1.1805292E-1,1.277408E-1,-7.138231E-2,-1.3163146E-1,2.0444429E-2,1.2118664E-1,-9.173196E-2,-1.2952359E-1,-4.772808E-3,-1.419683E-1,-6.7620943E-3],"split_indices":[376,858,630,1160,1861,308,0,1238,1794,1504,2014,239,1934,49,45,1870,1456,692,1238,0,0,14,389,148,0,0,0,0,0,0,0,0,0,0,0,0,0,0,0,0,0,0,0],"split_type":[0,0,0,0,0,0,0,0,0,0,0,0,0,0,0,0,0,0,0,0,0,0,0,0,0,0,0,0,0,0,0,0,0,0,0,0,0,0,0,0,0,0,0],"sum_hessian":[2.9793752E3,2.6893105E3,2.9006448E2,2.492059E3,1.9725148E2,2.8081686E2,9.24764E0,2.2573718E3,2.3468732E2,1.873142E2,9.937278E0,2.724952E2,8.321652E0,2.193088E3,6.428408E1,2.1392278E2,2.0764542E1,1.8212949E2,5.1847067E0,1.1895733E0,8.7477045E0,2.693327E2,3.1625044E0,5.2971544E0,3.0244977E0,2.1410864E3,5.200128E1,5.989021E1,4.3938723E0,2.0443416E2,9.488614E0,1.6621662E1,4.142881E0,1.7841966E2,3.709822E0,3.478138E0,1.7065685E0,2.671141E2,2.218589E0,1.9596968E0,1.2028077E0,4.0317016E0,1.2654527E0],"tree_param":{"num_deleted":"0","num_feature":"2026","num_nodes":"43","size_leaf_vector":"1"}},{"base_weights":[-8.924877E-3,9.1517396E-2,-1.17404155E-1,1.8753757E-1,-1.251928E0,2.884887E-1,-1.119553E0,-1.2675066E0,2.8533975E-2,3.7832913E-1,-9.783592E-1,-1.1533445E0,1.0862263E-1,-2.4131112E-1,-1.2786238E0,4.8697777E-2,-6.827044E-2,-1.0545733E-1,1.2380751E-1,-1.1843138E-1,8.452741E-2,1.367484E-2,-4.9056605E-2,-1.2837762E-1,-2.0198552E-2],"categories":[],"categories_nodes":[],"categories_segments":[],"categories_sizes":[],"default_left":[0,0,0,0,0,0,0,0,0,0,0,0,0,0,0,0,0,0,0,0,0,0,0,0,0],"id":12,"left_children":[1,3,-1,5,7,9,11,13,-1,15,17,19,-1,21,23,-1,-1,-1,-1,-1,-1,-1,-1,-1,-1],"loss_changes":[3.4198642E2,3.4729575E2,0E0,3.3176624E2,4.6627502E0,2.6584723E2,1.4691345E1,1.7219238E0,0E0,2.5150494E2,2.7445068E1,1.2022156E1,0E0,3.6298472E-1,7.161255E-1,0E0,0E0,0E0,0E0,0E0,0E0,0E0,0E0,0E0,0E0],"parents":[2147483647,0,0,1,1,3,3,4,4,5,5,6,6,7,7,9,9,10,10,11,11,13,13,14,14],"right_children":[2,4,-1,6,8,10,12,14,-1,16,18,20,-1,22,24,-1,-1,-1,-1,-1,-1,-1,-1,-1,-1],"split_conditions":[1.5058466E-2,9.987615E-3,-1.17404155E-1,2.1771502E-2,7.408989E-2,6.150783E-2,2.106325E-1,3.288889E0,2.8533975E-2,3.3959925E-2,5.763592E-3,9.463549E-2,1.0862263E-1,5.4892343E-3,3.940489E-2,4.8697777E-2,-6.827044E-2,-1.0545733E-1,1.2380751E-1,-1.1843138E-1,8.452741E-2,1.367484E-2,-4.9056605E-2,-1.2837762E-1,-2.0198552E-2],"split_indices":[630,1983,0,1861,1456,491,514,2002,0,1788,1866,53,0,1788,201,0,0,0,0,0,0,0,0,0,0],"split_type":[0,0,0,0,0,0,0,0,0,0,0,0,0,0,0,0,0,0,0,0,0,0,0,0,0],"sum_hessian":[2.9203694E3,2.6894397E3,2.3092955E2,2.5108425E3,1.7859723E2,2.3315483E3,1.7929424E2,1.7697922E2,1.6180152E0,2.1778071E3,1.5374113E2,1.770589E2,2.2353356E0,2.1400878E0,1.7483913E2,1.9760073E3,2.0179991E2,1.4913712E2,4.6040106E0,1.7475839E2,2.3005004E0,1.0296813E0,1.1104065E0,1.7381491E2,1.0242121E0],"tree_param":{"num_deleted":"0","num_feature":"2026","num_nodes":"25","size_leaf_vector":"1"}},{"base_weights":[-9.309877E-3,7.8947164E-2,-1.2161087E0,1.64501E-1,-1.2144163E0,-1.2366283E0,7.507829E-2,2.5516856E-1,-1.0962436E0,-1.2306979E0,2.6683856E-2,-1.2499272E0,3.3672046E-2,3.382156E-1,-9.455275E-1,-1.125687E0,1.2036919E-1,-1.2428203E0,-1.9690675E-1,-1.2614373E0,4.3445993E-2,4.0104818E-2,-1.1439724E-1,-1.0584589E-1,5.757017E-2,-1.1528712E-1,1.19798176E-1,-1.24876596E-1,-1.4735289E-2,-6.690396E-2,3.8849805E-2,-1.2723689E-1,-6.0444657E-4],"categories":[],"categories_nodes":[],"categories_segments":[],"categories_sizes":[],"default_left":[0,0,0,0,0,0,0,0,0,0,0,0,0,0,0,0,0,0,0,0,0,0,0,0,0,0,0,0,0,0,0,0,0],"id":13,"left_children":[1,3,5,7,9,11,-1,13,15,17,-1,19,-1,21,23,25,-1,27,29,31,-1,-1,-1,-1,-1,-1,-1,-1,-1,-1,-1,-1,-1],"loss_changes":[3.0548416E2,2.9595123E2,8.81723E0,2.869488E2,4.330658E0,4.476349E0,0E0,2.336918E2,1.2761627E1,1.814621E0,0E0,4.2784424E0,0E0,2.0438875E2,2.6665024E1,1.19192505E1,0E0,8.726654E-1,1.1147454E0,2.6184387E0,0E0,0E0,0E0,0E0,0E0,0E0,0E0,0E0,0E0,0E0,0E0,0E0,0E0],"parents":[2147483647,0,0,1,1,2,2,3,3,4,4,5,5,7,7,8,8,9,9,11,11,13,13,14,14,15,15,17,17,18,18,19,19],"right_children":[2,4,6,8,10,12,-1,14,16,18,-1,20,-1,22,24,26,-1,28,30,32,-1,-1,-1,-1,-1,-1,-1,-1,-1,-1,-1,-1,-1],"split_conditions":[1.3939425E-2,9.987615E-3,5.0684053E-2,7.2087552E-3,7.408989E-2,9.236466E-3,7.507829E-2,6.150783E-2,5.7971854E-2,2.431315E-2,2.6683856E-2,5.921438E-2,3.3672046E-2,1.5058466E-2,1.832E3,9.088243E-2,1.2036919E-1,1.9586429E-1,5.759979E-3,4.7503628E-2,4.3445993E-2,4.0104818E-2,-1.1439724E-1,-1.0584589E-1,5.757017E-2,-1.1528712E-1,1.19798176E-1,-1.24876596E-1,-1.4735289E-2,-6.690396E-2,3.8849805E-2,-1.2723689E-1,-6.0444657E-4],"split_indices":[332,1983,282,978,1456,939,0,491,833,1104,0,109,0,630,2000,1069,0,1064,148,172,0,0,0,0,0,0,0,0,0,0,0,0,0],"split_type":[0,0,0,0,0,0,0,0,0,0,0,0,0,0,0,0,0,0,0,0,0,0,0,0,0,0,0,0,0,0,0,0,0],"sum_hessian":[2.8662654E3,2.6718025E3,1.9446284E2,2.5068513E3,1.6495122E2,1.9282251E2,1.6403391E0,2.3394082E3,1.6744301E2,1.6332515E2,1.6260816E0,1.9141017E2,1.4123446E0,2.1887407E3,1.5066754E2,1.6583063E2,1.6123855E0,1.6123232E2,2.0928338E0,1.9036044E2,1.0497266E0,2.1004292E3,8.831152E1,1.4053859E2,1.0128944E1,1.6441109E2,1.4195495E0,1.6022276E2,1.0095484E0,1.0794132E0,1.0134206E0,1.8870375E2,1.6566818E0],"tree_param":{"num_deleted":"0","num_feature":"2026","num_nodes":"33","size_leaf_vector":"1"}},{"base_weights":[-9.645599E-3,-1.11371405E-1,9.727369E-1,-7.641922E-3,-1.0279639E0,1.0305576E0,-9.722643E-2,8.849866E-2,-1.1363941E-1,-1.1265427E0,1.6184753E0,1.0643176E0,-8.7867767E-1,1.7783485E-1,-1.2739651E0,-1.17325E0,1.0646853E0,1.7159651E-1,4.9063053E-2,1.0959815E0,-7.4853617E-1,-1.1213658E-1,4.062014E-3,7.6184E-3,1.3334654E-1,-1.2807964E-1,-2.0122541E-2,-1.2157128E-1,1.0651662E-1,1.2067393E-1,1.960504E-2,1.1207073E-1,-1.0951413E-1,-3.530952E-3,-1.11584246E-1],"categories":[],"categories_nodes":[],"categories_segments":[],"categories_sizes":[],"default_left":[0,0,0,0,0,0,0,0,0,0,0,0,0,0,0,0,0,0,0,0,0,0,0,0,0,0,0,0,0,0,0,0,0,0,0],"id":14,"left_children":[1,3,5,7,9,11,-1,13,-1,15,17,19,21,23,25,27,29,-1,-1,31,33,-1,-1,-1,-1,-1,-1,-1,-1,-1,-1,-1,-1,-1,-1],"loss_changes":[2.814627E2,2.4264262E2,3.0723602E1,2.4900797E2,6.950949E1,1.7509277E1,0E0,2.576073E2,0E0,2.6909698E1,2.2769165E-1,1.5350159E1,1.164547E0,2.3311737E2,6.9667053E-1,2.467392E1,4.7379494E-1,0E0,0E0,1.47274475E1,1.2545912E0,0E0,0E0,0E0,0E0,0E0,0E0,0E0,0E0,0E0,0E0,0E0,0E0,0E0,0E0],"parents":[2147483647,0,0,1,1,2,2,3,3,4,4,5,5,7,7,9,9,10,10,11,11,12,12,13,13,14,14,15,15,16,16,19,19,20,20],"right_children":[2,4,6,8,10,12,-1,14,-1,16,18,20,22,24,26,28,30,-1,-1,32,34,-1,-1,-1,-1,-1,-1,-1,-1,-1,-1,-1,-1,-1,-1],"split_conditions":[3.4726728E-2,2.7190777E-2,1.5058466E-2,1.5058466E-2,5.4137293E-2,3.333392E-2,-9.722643E-2,1.3835987E-2,-1.1363941E-1,3.7573133E-2,4.625E0,5.408314E-2,1.731973E-2,6.8483483E-3,3.294334E-1,4.237916E-2,4.278075E-2,1.7159651E-1,4.9063053E-2,1.5774949E-1,5.189189E0,-1.1213658E-1,4.062014E-3,7.6184E-3,1.3334654E-1,-1.2807964E-1,-2.0122541E-2,-1.2157128E-1,1.0651662E-1,1.2067393E-1,1.960504E-2,1.1207073E-1,-1.0951413E-1,-3.530952E-3,-1.11584246E-1],"split_indices":[376,45,630,630,1392,601,0,1017,0,1743,2002,1603,649,1226,1851,928,2014,0,0,308,2002,0,0,0,0,0,0,0,0,0,0,0,0,0,0],"split_type":[0,0,0,0,0,0,0,0,0,0,0,0,0,0,0,0,0,0,0,0,0,0,0,0,0,0,0,0,0,0,0,0,0,0,0],"sum_hessian":[2.8144119E3,2.551129E3,2.6328305E2,2.292678E3,2.584508E2,2.5613873E2,7.144306E0,2.1135774E3,1.7910071E2,2.4972305E2,8.72776E0,2.5212312E2,4.0156136E0,1.9843348E3,1.2924255E2,2.4496603E2,4.7570205E0,7.5533977E0,1.1743623E0,2.481837E2,3.9394138E0,3.0030284E0,1.0125853E0,1.8248816E3,1.5945319E2,1.2823204E2,1.0105176E0,2.4085391E2,4.11212E0,3.7538846E0,1.0031358E0,2.4589738E2,2.2863219E0,1.7117362E0,2.2276776E0],"tree_param":{"num_deleted":"0","num_feature":"2026","num_nodes":"35","size_leaf_vector":"1"}},{"base_weights":[-9.429158E-3,-8.917314E-2,1.1916696E0,-1.5907267E-1,1.1810496E0,1.2563715E0,-8.0239093E-1,-2.4498787E-2,-7.847002E-1,1.252063E0,-1.0969855E-1,1.314896E0,-3.999732E-1,1.5136343E-2,-1.0484171E-1,7.994062E-2,-1.1824279E0,-8.822779E-1,1.0342315E0,1.2994367E0,-8.167564E-2,1.3619184E0,-7.201202E-1,-9.950998E-1,8.768495E-2,1.795418E-2,-1.08066335E-1,-1.20104946E-1,9.201091E-2,-9.528432E-2,1.2589279E-1,1.2252599E-1,-8.229977E-2,1.3665149E-1,-1.9012427E-2,1.3951235E-1,-5.884206E-2,-8.525648E-2,-1.5853992E-2,-1.2532394E-1,-2.2805647E-3],"categories":[],"categories_nodes":[],"categories_segments":[],"categories_sizes":[],"default_left":[0,0,0,0,0,0,0,0,0,0,0,0,0,0,0,0,0,0,0,0,0,0,0,0,0,0,0,0,0,0,0,0,0,0,0,0,0,0,0,0,0],"id":15,"left_children":[1,3,5,7,9,11,13,15,17,19,-1,21,23,-1,-1,25,27,29,31,33,-1,35,37,39,-1,-1,-1,-1,-1,-1,-1,-1,-1,-1,-1,-1,-1,-1,-1,-1,-1],"loss_changes":[2.6445892E2,2.3006732E2,2.3187042E1,2.066682E2,2.3238953E1,1.6703766E1,1.5695798E0,2.4454605E2,7.803909E1,1.3953613E1,0E0,1.6428131E1,5.7831106E0,0E0,0E0,2.1463617E2,7.655243E0,6.359607E1,9.021185E0,1.3147583E1,0E0,1.1061462E1,1.8465853E-1,1.1953034E0,0E0,0E0,0E0,0E0,0E0,0E0,0E0,0E0,0E0,0E0,0E0,0E0,0E0,0E0,0E0,0E0,0E0],"parents":[2147483647,0,0,1,1,2,2,3,3,4,4,5,5,6,6,7,7,8,8,9,9,11,11,12,12,15,15,16,16,17,17,18,18,19,19,21,21,22,22,23,23],"right_children":[2,4,6,8,10,12,14,16,18,20,-1,22,24,-1,-1,26,28,30,32,34,-1,36,38,40,-1,-1,-1,-1,-1,-1,-1,-1,-1,-1,-1,-1,-1,-1,-1,-1,-1],"split_conditions":[7.0910207E-3,7.336135E-2,1.0816858E-2,3.717308E-2,1.01743594E-1,7.546782E-3,4.3266788E0,1.0131553E-2,4.7624268E-2,1.5058466E-2,-1.0969855E-1,5.0349243E-2,2.2531372E-2,1.5136343E-2,-1.0484171E-1,7.2087552E-3,5.0684053E-2,1.2030812E-3,2.9701358E-3,6.434525E-2,-8.167564E-2,1.3172181E-2,2.5974672E-2,2.5320293E-2,8.768495E-2,1.795418E-2,-1.08066335E-1,-1.20104946E-1,9.201091E-2,-9.528432E-2,1.2589279E-1,1.2252599E-1,-8.229977E-2,1.3665149E-1,-1.9012427E-2,1.3951235E-1,-5.884206E-2,-8.525648E-2,-1.5853992E-2,-1.2532394E-1,-2.2805647E-3],"split_indices":[1486,1238,906,1870,1882,940,2002,332,1912,630,0,1983,1160,0,0,978,282,1673,1255,45,0,332,1807,1489,0,0,0,0,0,0,0,0,0,0,0,0,0,0,0,0,0],"split_type":[0,0,0,0,0,0,0,0,0,0,0,0,0,0,0,0,0,0,0,0,0,0,0,0,0,0,0,0,0,0,0,0,0,0,0,0,0,0,0,0,0],"sum_hessian":[2.758987E3,2.5880833E3,1.7090364E2,2.4539204E3,1.3416287E2,1.6589087E2,5.012774E0,2.0203729E3,4.3354755E2,1.305438E2,3.6190848E0,1.6042851E2,5.4623566E0,1.1068157E0,3.9059582E0,1.8540756E3,1.6629736E2,4.1196252E2,2.1585032E1,1.2798497E2,2.558818E0,1.5712854E2,3.2999635E0,3.8762717E0,1.586085E0,1.7083159E3,1.4575963E2,1.6526244E2,1.0349219E0,3.9935638E2,1.2606136E1,1.9880468E1,1.7045639E0,1.2254894E2,5.436029E0,1.5477809E2,2.3504546E0,2.2509418E0,1.0490216E0,2.8347163E0,1.0415553E0],"tree_param":{"num_deleted":"0","num_feature":"2026","num_nodes":"41","size_leaf_vector":"1"}},{"base_weights":[-9.291169E-3,6.696908E-2,-1.1209885E0,-2.0915745E-2,1.0596917E0,-1.1819525E0,1.1347281E-1,1.1586849E-1,-6.230671E-1,1.1347197E0,-7.180125E-1,-1.2054211E0,8.224591E-2,2.1072607E-1,-1.0746609E0,-7.499842E-1,9.749834E-1,1.2112956E0,-5.374579E-1,-9.983855E-1,6.898563E-2,-1.2251979E0,9.187187E-2,3.101239E-2,-7.988913E-2,-1.1152877E-1,9.409626E-2,-8.424565E-2,9.1936246E-2,1.22764066E-1,-4.9016338E-2,1.2615511E-1,-8.9699656E-2,-9.0541355E-2,9.2899986E-2,-1.2249843E-1,2.7288726E-2,-1.2447532E-1,8.868637E-2],"categories":[],"categories_nodes":[],"categories_segments":[],"categories_sizes":[],"default_left":[0,0,0,0,0,0,0,0,0,0,0,0,0,0,0,0,0,0,0,0,0,0,0,0,0,0,0,0,0,0,0,0,0,0,0,0,0,0,0],"id":16,"left_children":[1,3,5,7,9,11,-1,13,15,17,19,21,-1,23,25,27,29,31,33,35,-1,37,-1,-1,-1,-1,-1,-1,-1,-1,-1,-1,-1,-1,-1,-1,-1,-1,-1],"loss_changes":[2.295164E2,2.2106482E2,2.5240372E1,1.9185907E2,2.8300293E1,8.974533E0,0E0,2.1460501E2,8.818434E1,2.6019379E1,4.224549E0,8.18927E0,0E0,1.7677655E2,1.2534622E1,6.252585E1,1.2506708E1,2.1235931E1,5.895968E0,2.6038532E0,0E0,8.002472E0,0E0,0E0,0E0,0E0,0E0,0E0,0E0,0E0,0E0,0E0,0E0,0E0,0E0,0E0,0E0,0E0,0E0],"parents":[2147483647,0,0,1,1,2,2,3,3,4,4,5,5,7,7,8,8,9,9,10,10,11,11,13,13,14,14,15,15,16,16,17,17,18,18,19,19,21,21],"right_children":[2,4,6,8,10,12,-1,14,16,18,20,22,-1,24,26,28,30,32,34,36,-1,38,-1,-1,-1,-1,-1,-1,-1,-1,-1,-1,-1,-1,-1,-1,-1,-1,-1],"split_conditions":[2.023824E-2,1.4717878E-2,6.427951E-2,3.717308E-2,3.746034E-2,3.2360638E-3,1.1347281E-1,2.1771502E-2,4.0833686E-2,1.7969975E-2,2.2555323E-2,5.8086156E-3,8.224591E-2,4.219064E-2,9.463549E-2,4.7624268E-2,4.845245E-2,1.5058466E-2,3.3026338E-3,2.3695005E-2,6.898563E-2,1.7839482E-2,9.187187E-2,3.101239E-2,-7.988913E-2,-1.1152877E-1,9.409626E-2,-8.424565E-2,9.1936246E-2,1.22764066E-1,-4.9016338E-2,1.2615511E-1,-8.9699656E-2,-9.0541355E-2,9.2899986E-2,-1.2249843E-1,2.7288726E-2,-1.2447532E-1,8.868637E-2],"split_indices":[1334,1226,49,1870,1552,1487,0,1861,1486,978,1131,1121,0,1788,53,1912,1882,630,833,543,0,927,0,0,0,0,0,0,0,0,0,0,0,0,0,0,0,0,0],"split_type":[0,0,0,0,0,0,0,0,0,0,0,0,0,0,0,0,0,0,0,0,0,0,0,0,0,0,0,0,0,0,0,0,0,0,0,0,0,0,0],"sum_hessian":[2.705368E3,2.532578E3,1.727901E2,2.327505E3,2.0507295E2,1.6870657E2,4.0835185E0,1.897319E3,4.301859E2,1.9711539E2,7.957566E0,1.6714815E2,1.5584325E0,1.758065E3,1.3925401E2,3.9902597E2,3.1159943E1,1.887475E2,8.367903E0,6.8785715E0,1.0789942E0,1.6602557E2,1.1225749E0,1.6011255E3,1.5693953E2,1.3694052E2,2.313489E0,3.785517E2,2.0474264E1,2.6715153E1,4.44479E0,1.8474533E2,4.002153E0,6.9952717E0,1.372631E0,5.8688807E0,1.0096909E0,1.6490933E2,1.1162345E0],"tree_param":{"num_deleted":"0","num_feature":"2026","num_nodes":"39","size_leaf_vector":"1"}},{"base_weights":[-9.048271E-3,6.374164E-2,-1.1082182E-1,1.350108E-1,-1.1644473E0,2.0147035E-1,-1.2347372E0,-1.1812252E0,2.4343949E-2,2.611748E-1,-1.1171721E0,-1.2427951E0,-1.9597884E-2,-1.6603326E-2,-1.194527E0,3.9185315E-2,-3.8651835E-2,-1.2301321E-1,1.354304E-1,-1.250893E-1,-1.9460363E-2,-1.20129846E-1,-1.5442234E-2],"categories":[],"categories_nodes":[],"categories_segments":[],"categories_sizes":[],"default_left":[0,0,0,0,0,0,0,0,0,0,0,0,0,0,0,0,0,0,0,0,0,0,0],"id":17,"left_children":[1,3,-1,5,7,9,11,13,-1,15,17,19,-1,-1,21,-1,-1,-1,-1,-1,-1,-1,-1],"loss_changes":[2.1258606E2,2.1829863E2,0E0,2.1475378E2,3.518631E0,1.7728757E2,6.703186E-1,1.629364E0,0E0,1.8226164E2,2.8905693E1,6.745758E-1,0E0,0E0,7.542877E-1,0E0,0E0,0E0,0E0,0E0,0E0,0E0,0E0],"parents":[2147483647,0,0,1,1,3,3,4,4,5,5,6,6,7,7,9,9,10,10,11,11,14,14],"right_children":[2,4,-1,6,8,10,12,14,-1,16,18,20,-1,-1,22,-1,-1,-1,-1,-1,-1,-1,-1],"split_conditions":[1.5058466E-2,9.987615E-3,-1.1082182E-1,1.3835987E-2,7.408989E-2,4.5619957E-2,5.273148E0,3.288889E0,2.4343949E-2,3.717308E-2,2.7969006E-2,2.9678556E-1,-1.9597884E-2,-1.6603326E-2,6.789272E-2,3.9185315E-2,-3.8651835E-2,-1.2301321E-1,1.354304E-1,-1.250893E-1,-1.9460363E-2,-1.20129846E-1,-1.5442234E-2],"split_indices":[630,1983,0,1017,1456,43,2002,2002,0,1870,1738,1851,0,0,1748,0,0,0,0,0,0,0,0],"split_type":[0,0,0,0,0,0,0,0,0,0,0,0,0,0,0,0,0,0,0,0,0,0,0],"sum_hessian":[2.6551614E3,2.491134E3,1.6402742E2,2.3553481E3,1.357857E2,2.2471694E3,1.08178734E2,1.3434569E2,1.4400095E0,2.1505984E3,9.657118E1,1.071511E2,1.0276265E0,1.9119073E0,1.3243379E2,1.7898698E3,3.6072855E2,9.283058E1,3.7405977E0,1.0613774E2,1.0133623E0,1.3142319E2,1.0105914E0],"tree_param":{"num_deleted":"0","num_feature":"2026","num_nodes":"23","size_leaf_vector":"1"}},{"base_weights":[-9.252399E-3,-9.761999E-2,8.939508E-1,-1.8839364E-1,8.6327225E-1,9.4596875E-1,-9.310694E-2,-2.431352E-1,1.3687358E0,9.953496E-1,-1.2271752E0,9.951555E-1,-4.6708804E-1,-3.0766004E-1,1.2213875E0,1.4357244E0,-5.101381E-1,1.0856652E0,-1.1918837E-1,-1.3042402E-1,-2.4492953E-2,1.0272064E0,-1.001617E0,-1.129679E0,8.703371E-2,-2.0120336E-2,-1.03964224E-1,1.3632014E-1,-9.262837E-2,1.4923981E-1,-6.695279E-2,2.2647334E-2,-9.33957E-2,1.1594985E-1,-3.5857778E-2,1.0539569E-1,-7.128032E-2,-1.3072704E-1,-8.659949E-3,-1.3591585E-1,-1.207887E-2],"categories":[],"categories_nodes":[],"categories_segments":[],"categories_sizes":[],"default_left":[0,0,0,0,0,0,0,0,0,0,0,0,0,0,0,0,0,0,0,0,0,0,0,0,0,0,0,0,0,0,0,0,0,0,0,0,0,0,0,0,0],"id":18,"left_children":[1,3,5,7,9,11,-1,13,15,17,19,21,23,25,27,29,31,33,-1,-1,-1,35,37,39,-1,-1,-1,-1,-1,-1,-1,-1,-1,-1,-1,-1,-1,-1,-1,-1,-1],"loss_changes":[2.0831657E2,2.0752232E2,2.2962723E1,1.8555487E2,5.792607E1,1.6218048E1,0E0,1.9882248E2,1.0039703E1,3.956244E1,6.3832283E-1,1.5066879E1,8.342552E0,1.5658934E2,2.8314636E1,9.549637E0,1.2366133E0,2.0309784E1,0E0,0E0,0E0,1.0822769E1,9.975436E-1,1.2223043E0,0E0,0E0,0E0,0E0,0E0,0E0,0E0,0E0,0E0,0E0,0E0,0E0,0E0,0E0,0E0,0E0,0E0],"parents":[2147483647,0,0,1,1,2,2,3,3,4,4,5,5,7,7,8,8,9,9,10,10,11,11,12,12,13,13,14,14,15,15,16,16,17,17,21,21,22,22,23,23],"right_children":[2,4,6,8,10,12,-1,14,16,18,20,22,24,26,28,30,32,34,-1,-1,-1,36,38,40,-1,-1,-1,-1,-1,-1,-1,-1,-1,-1,-1,-1,-1,-1,-1,-1,-1],"split_conditions":[3.4726728E-2,7.110243E-2,1.5058466E-2,8.5053995E-2,2.8959574E-2,6.993594E-2,-9.310694E-2,2.6648046E-2,8.358334E-2,1.6201405E-2,7.249085E-2,3.350765E-2,1.905931E-2,5.4892343E-3,1.5058466E-2,7.9414465E-2,3.5313003E-2,8.101709E-3,-1.1918837E-1,-1.3042402E-1,-2.4492953E-2,3.333392E-2,4.957455E-2,9.6326225E-2,8.703371E-2,-2.0120336E-2,-1.03964224E-1,1.3632014E-1,-9.262837E-2,1.4923981E-1,-6.695279E-2,2.2647334E-2,-9.33957E-2,1.1594985E-1,-3.5857778E-2,1.0539569E-1,-7.128032E-2,-1.3072704E-1,-8.659949E-3,-1.3591585E-1,-1.207887E-2],"split_indices":[376,858,630,1559,38,308,0,928,1751,602,389,239,1934,1788,630,974,2014,692,0,0,0,601,389,148,0,0,0,0,0,0,0,0,0,0,0,0,0,0,0,0,0],"split_type":[0,0,0,0,0,0,0,0,0,0,0,0,0,0,0,0,0,0,0,0,0,0,0,0,0,0,0,0,0,0,0,0,0,0,0,0,0,0,0,0,0],"sum_hessian":[2.6079358E3,2.376332E3,2.3160365E2,2.1719556E3,2.0437653E2,2.2565358E2,5.950061E0,2.0990078E3,7.2947685E1,1.9272383E2,1.1652697E1,2.1834888E2,7.3047123E0,2.0111877E3,8.7820206E1,7.0664116E1,2.283569E0,1.8556508E2,7.1587462E0,1.0500995E1,1.1517013E0,2.1537733E2,2.971538E0,4.988586E0,2.3161263E0,1.75694E3,2.5424773E2,8.2723145E1,5.0970626E0,6.909517E1,1.5689423E0,1.0040804E0,1.2794886E0,1.767275E2,8.837591E0,2.1250462E2,2.8727062E0,1.9061294E0,1.0654087E0,3.7813165E0,1.2072693E0],"tree_param":{"num_deleted":"0","num_feature":"2026","num_nodes":"41","size_leaf_vector":"1"}},{"base_weights":[-8.424921E-3,-8.527676E-2,9.9893403E-1,-1.369474E-1,1.2295299E0,1.125153E0,-9.132548E-2,-2.1856047E-1,7.2145677E-1,1.2730058E0,-9.197401E-2,1.1915041E0,-1.253712E-1,3.17086E-1,-1.2554531E-1,-2.9270214E-1,8.428998E-1,8.589698E-1,-1.0281596E-1,1.3118438E0,-9.21091E-2,1.2646267E0,-8.8280094E-1,1.0225457E0,-3.1495363E-1,-3.7321147E-2,7.1030654E-2,9.357893E-2,-1.1600282E-1,1.0581409E-1,-3.208685E-2,1.3536446E-1,-5.952065E-2,1.3269527E-1,-5.035766E-2,-1.4748386E-2,-1.0018027E-1,1.1664655E-1,5.7747914E-3,-1.06812514E-1,5.1767923E-2],"categories":[],"categories_nodes":[],"categories_segments":[],"categories_sizes":[],"default_left":[0,0,0,0,0,0,0,0,0,0,0,0,0,0,0,0,0,0,0,0,0,0,0,0,0,0,0,0,0,0,0,0,0,0,0,0,0,0,0,0,0],"id":19,"left_children":[1,3,5,7,9,11,13,15,17,19,-1,21,-1,23,-1,25,27,29,-1,31,-1,33,35,37,39,-1,-1,-1,-1,-1,-1,-1,-1,-1,-1,-1,-1,-1,-1,-1,-1],"loss_changes":[1.9832365E2,1.6186235E2,2.5090836E1,1.6065576E2,9.589691E0,2.7193192E1,9.79554E0,1.6494896E2,4.879425E1,8.76944E0,0E0,2.5220123E1,0E0,7.2022257E0,0E0,1.5829048E2,2.6554993E1,4.385254E1,0E0,7.788803E0,0E0,1.7630188E1,3.7728262E-1,9.778266E-1,6.136367E0,0E0,0E0,0E0,0E0,0E0,0E0,0E0,0E0,0E0,0E0,0E0,0E0,0E0,0E0,0E0,0E0],"parents":[2147483647,0,0,1,1,2,2,3,3,4,4,5,5,6,6,7,7,8,8,9,9,11,11,13,13,15,15,16,16,17,17,19,19,21,21,22,22,23,23,24,24],"right_children":[2,4,6,8,10,12,14,16,18,20,-1,22,-1,24,-1,26,28,30,-1,32,-1,34,36,38,40,-1,-1,-1,-1,-1,-1,-1,-1,-1,-1,-1,-1,-1,-1,-1,-1],"split_conditions":[8.3402395E-2,8.196824E-2,1.1716692E-2,3.426291E-2,9.996217E-3,1.6798963E-1,6.1938274E-3,9.054075E-2,1.5058466E-2,4.95656E-3,-9.197401E-2,2.3290351E-1,-1.253712E-1,3.2244195E-4,-1.2554531E-1,1.2348129E-2,7.814813E-3,8.424111E-3,-1.0281596E-1,7.489559E-2,-9.21091E-2,9.6006304E-2,5.4730017E-2,7.617854E-3,1.3316154E-1,-3.7321147E-2,7.1030654E-2,9.357893E-2,-1.1600282E-1,1.0581409E-1,-3.208685E-2,1.3536446E-1,-5.952065E-2,1.3269527E-1,-5.035766E-2,-1.4748386E-2,-1.0018027E-1,1.1664655E-1,5.7747914E-3,-1.06812514E-1,5.1767923E-2],"split_indices":[743,1559,45,406,1132,702,1531,858,630,1265,0,1989,0,2012,0,376,425,45,0,45,0,1034,1878,1345,743,0,0,0,0,0,0,0,0,0,0,0,0,0,0,0,0],"split_type":[0,0,0,0,0,0,0,0,0,0,0,0,0,0,0,0,0,0,0,0,0,0,0,0,0,0,0,0,0,0,0,0,0,0,0,0,0,0,0,0,0],"sum_hessian":[2.5596453E3,2.379061E3,1.8058423E2,2.2899636E3,8.909753E1,1.6181854E2,1.8765675E1,2.0918276E3,1.9813588E2,8.773059E1,1.3669342E0,1.5791316E2,3.9053786E0,1.4430599E1,4.3350754E0,1.9559326E3,1.3589516E2,1.841699E2,1.39659815E1,8.6599785E1,1.1308091E0,1.5291307E2,5.0000916E0,6.5272593E0,7.90334E0,1.8111809E3,1.447517E2,1.3038129E2,5.513879E0,1.5765839E2,2.6511507E1,8.5026276E1,1.5735052E0,1.4794774E2,4.9653425E0,1.008412E0,3.9916797E0,5.4980793E0,1.0291799E0,4.0011797E0,3.9021602E0],"tree_param":{"num_deleted":"0","num_feature":"2026","num_nodes":"41","size_leaf_vector":"1"}},{"base_weights":[-7.549901E-3,-7.6106146E-2,1.065466E0,-1.3773482E-1,1.0728236E0,1.1800818E0,4.4672936E-2,-1.7960623E-1,1.4334764E0,1.1358577E0,-1.03448264E-1,1.2240436E0,-8.553139E-1,-5.373311E-1,1.1427518E-1,-2.3928115E-1,8.5363925E-1,1.4911145E0,-7.962494E-2,1.1765778E0,-7.506899E-2,1.2584765E0,-6.800395E-2,-1.04258396E-1,-3.0619446E-2,5.184084E-1,-8.564494E-1,-2.8830046E-2,1.14183165E-1,9.85016E-2,-5.13048E-2,1.5355654E-1,2.186012E-2,1.23800576E-1,-1.4696737E-2,1.2962447E-1,-4.7437247E-2,2.9216462E-3,7.589071E-2,-1.0585853E-1,3.8289525E-2],"categories":[],"categories_nodes":[],"categories_segments":[],"categories_sizes":[],"default_left":[0,0,0,0,0,0,0,0,0,0,0,0,0,0,0,0,0,0,0,0,0,0,0,0,0,0,0,0,0,0,0,0,0,0,0,0,0,0,0,0,0],"id":20,"left_children":[1,3,5,7,9,11,13,15,17,19,-1,21,23,25,-1,27,29,31,-1,33,-1,35,-1,-1,-1,37,39,-1,-1,-1,-1,-1,-1,-1,-1,-1,-1,-1,-1,-1,-1],"loss_changes":[1.8532892E2,1.6781575E2,1.7649063E1,1.4817006E2,1.7203156E1,1.3214935E1,1.1039089E1,1.3528775E2,8.701836E0,9.920197E0,0E0,9.609955E0,3.6949873E-2,4.2650957E0,0E0,1.4060477E2,2.2022873E1,2.9080582E0,0E0,9.575714E0,0E0,9.221207E0,0E0,0E0,0E0,3.6083388E-1,2.6815867E0,0E0,0E0,0E0,0E0,0E0,0E0,0E0,0E0,0E0,0E0,0E0,0E0,0E0,0E0],"parents":[2147483647,0,0,1,1,2,2,3,3,4,4,5,5,6,6,7,7,8,8,9,9,11,11,12,12,13,13,15,15,16,16,17,17,19,19,21,21,25,25,26,26],"right_children":[2,4,6,8,10,12,14,16,18,20,-1,22,24,26,-1,28,30,32,-1,34,-1,36,-1,-1,-1,38,40,-1,-1,-1,-1,-1,-1,-1,-1,-1,-1,-1,-1,-1,-1],"split_conditions":[7.0910207E-3,7.336135E-2,1.4413081E-2,5.0882697E-3,1.01743594E-1,7.532437E-2,6.89592E-2,1.0153337E-1,2.5258267E-2,1.5058466E-2,-1.03448264E-1,8.020324E-3,9.699173E-2,5.84E2,1.1427518E-1,2.470112E-2,2.822583E-2,5.395777E-2,-7.962494E-2,6.434525E-2,-7.506899E-2,2.6175406E-2,-6.800395E-2,-1.04258396E-1,-3.0619446E-2,3.2051284E-2,2.5977604E-2,-2.8830046E-2,1.14183165E-1,9.85016E-2,-5.13048E-2,1.5355654E-1,2.186012E-2,1.23800576E-1,-1.4696737E-2,1.2962447E-1,-4.7437247E-2,2.9216462E-3,7.589071E-2,-1.0585853E-1,3.8289525E-2],"split_indices":[1486,1238,45,48,1882,707,614,858,313,630,0,766,707,2000,0,568,1932,624,0,45,0,565,0,0,0,2013,1712,0,0,0,0,0,0,0,0,0,0,0,0,0,0],"split_type":[0,0,0,0,0,0,0,0,0,0,0,0,0,0,0,0,0,0,0,0,0,0,0,0,0,0,0,0,0,0,0,0,0,0,0,0,0,0,0,0,0],"sum_hessian":[2.517256E3,2.3669575E3,1.5029861E2,2.2472927E3,1.196648E2,1.3498618E2,1.5312435E1,2.1898215E3,5.7471165E1,1.1663693E2,3.0278656E0,1.3252249E2,2.4636838E0,1.0341757E1,4.970678E0,2.070981E3,1.1884071E2,5.634589E1,1.125275E0,1.14540955E2,2.0959773E0,1.305016E2,2.0208888E0,1.167035E0,1.296649E0,2.255473E0,8.086284E0,2.0007599E3,7.022095E1,1.0867344E2,1.0167278E1,5.424433E1,2.1015599E0,1.0952247E2,5.0184903E0,1.2796452E2,2.5370815E0,1.1130105E0,1.1424623E0,7.0777593E0,1.0085248E0],"tree_param":{"num_deleted":"0","num_feature":"2026","num_nodes":"41","size_leaf_vector":"1"}},{"base_weights":[-6.408233E-3,5.685122E-2,-1.0854157E-1,1.2033226E-1,-1.1297526E0,1.7880729E-1,-1.1897521E0,-1.1522918E0,2.8670618E-2,2.3607455E-1,-1.0992609E0,-1.1991061E0,-1.8772578E-2,-1.1629076E0,7.2387373E-4,-6.422647E-2,7.566031E-2,3.0604735E-2,-8.5571006E-2,-1.2878707E-1,4.2628795E-2,-1.2078299E-1,-2.1467114E-2,-1.1704387E-1,-1.6317775E-2],"categories":[],"categories_nodes":[],"categories_segments":[],"categories_sizes":[],"default_left":[0,0,0,0,0,0,0,0,0,0,0,0,0,0,0,0,0,0,0,0,0,0,0,0,0],"id":21,"left_children":[1,3,-1,5,7,9,11,13,15,17,19,21,-1,23,-1,-1,-1,-1,-1,-1,-1,-1,-1,-1,-1],"loss_changes":[1.696403E2,1.7698537E2,0E0,1.7100404E2,3.1484222E0,1.5652715E2,6.689911E-1,1.4494324E0,2.0746763E0,1.5643759E2,2.6945862E1,5.507202E-1,0E0,6.8244934E-1,0E0,0E0,0E0,0E0,0E0,0E0,0E0,0E0,0E0,0E0,0E0],"parents":[2147483647,0,0,1,1,3,3,4,4,5,5,6,6,7,7,8,8,9,9,10,10,11,11,13,13],"right_children":[2,4,-1,6,8,10,12,14,16,18,20,22,-1,24,-1,-1,-1,-1,-1,-1,-1,-1,-1,-1,-1],"split_conditions":[1.5058466E-2,9.987615E-3,-1.0854157E-1,1.3835987E-2,2.5521755E-2,2.5402613E-2,1.1723946E-1,1.2036477E-1,5.0059162E-2,5.8453493E-2,5.4611415E-2,5.0966617E-2,-1.8772578E-2,3.8241398E-2,7.2387373E-4,-6.422647E-2,7.566031E-2,3.0604735E-2,-8.5571006E-2,-1.2878707E-1,4.2628795E-2,-1.2078299E-1,-2.1467114E-2,-1.1704387E-1,-1.6317775E-2],"split_indices":[630,1983,0,1017,1000,999,614,1486,1088,491,614,55,0,1748,0,0,0,0,0,0,0,0,0,0,0],"split_type":[0,0,0,0,0,0,0,0,0,0,0,0,0,0,0,0,0,0,0,0,0,0,0,0,0],"sum_hessian":[2.483398E3,2.3467605E3,1.3663727E2,2.2284417E3,1.18318794E2,2.1340527E3,9.438896E1,1.1606583E2,2.252971E0,2.043312E3,9.0740776E1,9.332111E1,1.0678476E0,1.15009964E2,1.0558596E0,1.233625E0,1.0193458E0,1.9209194E3,1.2239265E2,8.089518E1,9.845596E0,9.227647E1,1.0446521E0,1.1398058E2,1.0293851E0],"tree_param":{"num_deleted":"0","num_feature":"2026","num_nodes":"25","size_leaf_vector":"1"}},{"base_weights":[-6.887599E-3,5.576199E-2,-1.0557562E0,-1.9397447E-2,9.331581E-1,-1.1198169E0,1.0440294E-1,-7.010683E-2,1.2452451E0,1.0090278E0,-7.221254E-1,-1.1441497E0,1.0524856E-1,4.4163667E-2,-6.165131E-1,1.405362E0,3.7098497E-2,1.0771717E0,-7.967198E-1,-1.051536E0,4.048314E-2,-1.169757E0,8.3524086E-2,1.2329227E-2,-1.0440812E-1,3.9698184E-2,-7.9628445E-2,1.4598423E-1,-8.819139E-2,-3.8652174E-2,9.950378E-2,1.1181795E-1,-1.1671956E-1,-1.04040764E-1,2.476838E-2,-1.3014522E-1,1.3615759E-2,-1.1955235E-1,4.6650586E-3],"categories":[],"categories_nodes":[],"categories_segments":[],"categories_sizes":[],"default_left":[0,0,0,0,0,0,0,0,0,0,0,0,0,0,0,0,0,0,0,0,0,0,0,0,0,0,0,0,0,0,0,0,0,0,0,0,0,0,0],"id":22,"left_children":[1,3,5,7,9,11,-1,13,15,17,19,21,-1,23,25,27,29,31,33,35,-1,37,-1,-1,-1,-1,-1,-1,-1,-1,-1,-1,-1,-1,-1,-1,-1,-1,-1],"loss_changes":[1.6079695E2,1.5229776E2,1.9721756E1,1.365532E2,2.3613327E1,8.30426E0,0E0,1.27831245E2,1.582795E1,2.2349564E1,3.6067786E0,7.734329E0,0E0,1.459836E2,6.483159E1,1.0316513E1,4.6997366E0,1.6834274E1,2.0204492E0,2.2278967E0,0E0,4.193878E0,0E0,0E0,0E0,0E0,0E0,0E0,0E0,0E0,0E0,0E0,0E0,0E0,0E0,0E0,0E0,0E0,0E0],"parents":[2147483647,0,0,1,1,2,2,3,3,4,4,5,5,7,7,8,8,9,9,10,10,11,11,13,13,14,14,15,15,16,16,17,17,18,18,19,19,21,21],"right_children":[2,4,6,8,10,12,-1,14,16,18,20,22,-1,24,26,28,30,32,34,36,-1,38,-1,-1,-1,-1,-1,-1,-1,-1,-1,-1,-1,-1,-1,-1,-1,-1,-1],"split_conditions":[1.9988399E-2,1.4717878E-2,6.427951E-2,5.342504E-2,3.0235339E-2,6.386414E-2,1.0440294E-1,1.5748031E-3,1.753E3,5.2486066E-2,9.613256E-3,1.7839482E-2,1.0524856E-1,7.2087552E-3,3.7113402E-2,4.4281725E-2,9.893144E-3,2.1565167E-2,6.329114E-2,5.922203E-3,4.048314E-2,2.8041126E-2,8.3524086E-2,1.2329227E-2,-1.0440812E-1,3.9698184E-2,-7.9628445E-2,1.4598423E-1,-8.819139E-2,-3.8652174E-2,9.950378E-2,1.1181795E-1,-1.1671956E-1,-1.04040764E-1,2.476838E-2,-1.3014522E-1,1.3615759E-2,-1.1955235E-1,4.6650586E-3],"split_indices":[1334,1226,49,1069,961,96,0,2012,2000,1552,1012,927,0,978,2014,628,1583,1720,2014,858,0,1559,0,0,0,0,0,0,0,0,0,0,0,0,0,0,0,0,0],"split_type":[0,0,0,0,0,0,0,0,0,0,0,0,0,0,0,0,0,0,0,0,0,0,0,0,0,0,0,0,0,0,0,0,0,0,0,0,0,0,0],"sum_hessian":[2.4451296E3,2.3082058E3,1.3692377E2,2.1269824E3,1.812235E2,1.3332301E2,3.6007464E0,2.0458912E3,8.109116E1,1.736545E2,7.5690074E0,1.3231422E2,1.0087988E0,1.6927946E3,3.5309665E2,7.145759E1,9.63358E0,1.6772836E2,5.926124E0,5.9087877E0,1.6602197E0,1.3102814E2,1.28608E0,1.5788777E3,1.1391686E2,5.301369E1,3.0008298E2,7.014848E1,1.3091033E0,7.0932903E0,2.54029E0,1.652115E2,2.516864E0,4.8080916E0,1.1180326E0,4.8024645E0,1.1063229E0,1.2832703E2,2.7011077E0],"tree_param":{"num_deleted":"0","num_feature":"2026","num_nodes":"39","size_leaf_vector":"1"}},{"base_weights":[-6.707909E-3,-7.5475916E-2,9.13682E-1,-1.1376039E-1,1.531927E0,9.691443E-1,-1.1853748E-1,-1.9538768E-1,6.2618256E-1,1.5506868E-1,2.9460926E-2,1.0913075E0,-8.3579734E-2,-2.573559E-1,7.3559767E-1,7.9087067E-1,-1.0294729E-1,1.1631633E0,-7.522767E-1,3.2256773E-1,-1.1642577E-1,-1.7214725E-2,-1.0020707E-1,8.372819E-2,-9.178341E-2,8.9722656E-2,-1.17680684E-1,1.2195696E-1,-4.2704634E-2,5.4619256E-3,-9.4275326E-2,5.6850936E-2,-1.05596736E-1],"categories":[],"categories_nodes":[],"categories_segments":[],"categories_sizes":[],"default_left":[0,0,0,0,0,0,0,0,0,0,0,0,0,0,0,0,0,0,0,0,0,0,0,0,0,0,0,0,0,0,0,0,0],"id":23,"left_children":[1,3,5,7,9,11,-1,13,15,-1,-1,17,19,21,23,25,-1,27,29,31,-1,-1,-1,-1,-1,-1,-1,-1,-1,-1,-1,-1,-1],"loss_changes":[1.5249226E2,1.381255E2,2.0648773E1,1.3242664E2,7.55249E-1,2.1148468E1,0E0,1.1404989E2,6.0221153E1,0E0,0E0,2.0319702E1,8.2558365E0,1.1729639E2,2.1520203E1,4.2644554E1,0E0,1.3228287E1,9.911337E-1,5.2901483E0,0E0,0E0,0E0,0E0,0E0,0E0,0E0,0E0,0E0,0E0,0E0,0E0,0E0],"parents":[2147483647,0,0,1,1,2,2,3,3,4,4,5,5,7,7,8,8,11,11,12,12,13,13,14,14,15,15,17,17,18,18,19,19],"right_children":[2,4,6,8,10,12,-1,14,16,-1,-1,18,20,22,24,26,-1,28,30,32,-1,-1,-1,-1,-1,-1,-1,-1,-1,-1,-1,-1,-1],"split_conditions":[8.3402395E-2,7.672899E-2,1.6798963E-1,3.1172639E-2,6.122628E-3,1.1716692E-2,-1.1853748E-1,9.054075E-2,1.5058466E-2,1.5506868E-1,2.9460926E-2,9.739083E-2,6.1938274E-3,3.0652648E-2,8.101709E-3,4.013375E-2,-1.0294729E-1,9.6006304E-2,4.34E2,6.122628E-3,-1.1642577E-1,-1.7214725E-2,-1.0020707E-1,8.372819E-2,-9.178341E-2,8.9722656E-2,-1.17680684E-1,1.2195696E-1,-4.2704634E-2,5.4619256E-3,-9.4275326E-2,5.6850936E-2,-1.05596736E-1],"split_indices":[743,1903,702,306,252,45,0,858,630,0,0,803,1531,1788,692,765,0,1034,2000,252,0,0,0,0,0,0,0,0,0,0,0,0,0],"split_type":[0,0,0,0,0,0,0,0,0,0,0,0,0,0,0,0,0,0,0,0,0,0,0,0,0,0,0,0,0,0,0,0,0],"sum_hessian":[2.4072026E3,2.2407039E3,1.6649881E2,2.1894849E3,5.1219036E1,1.6273718E2,3.7616289E0,1.9726108E3,2.1687392E2,5.0204586E1,1.0144478E0,1.4578316E2,1.695403E1,1.8501826E3,1.2242822E2,1.9772821E2,1.9145708E1,1.4066948E2,5.11368E0,1.2832681E1,4.121349E0,1.6613282E3,1.8885443E2,1.1580025E2,6.6279716E0,1.8810487E2,9.623335E0,1.360758E2,4.5936675E0,1.112817E0,4.0008626E0,1.1388483E1,1.4441972E0],"tree_param":{"num_deleted":"0","num_feature":"2026","num_nodes":"33","size_leaf_vector":"1"}},{"base_weights":[-6.1733425E-3,-6.732215E-2,9.8387414E-1,-5.1997025E-3,-1.022689E0,1.042637E0,-7.376512E-1,1.18715286E-1,-5.7273114E-1,-1.1345963E0,1.1273636E0,1.0872501E0,-7.831134E-1,3.3450257E-3,-9.457141E-2,1.9198479E-1,-1.1340216E0,-6.7691326E-1,9.480821E-1,-1.1937691E0,9.71747E-1,1.972889E-2,1.2540141E-1,1.1245111E0,-6.5399617E-1,-1.227931E-1,2.0564474E-2,2.7459709E-2,-1.0048324E-1,-1.2057662E-1,9.618313E-2,4.322228E-2,-8.108842E-2,1.1207958E-1,-9.992822E-2,-1.24874346E-1,4.5044627E-2,3.16847E-2,1.1186477E-1,1.16167724E-1,-6.861868E-2,2.7863387E-2,-1.2060852E-1],"categories":[],"categories_nodes":[],"categories_segments":[],"categories_sizes":[],"default_left":[0,0,0,0,0,0,0,0,0,0,0,0,0,0,0,0,0,0,0,0,0,0,0,0,0,0,0,0,0,0,0,0,0,0,0,0,0,0,0,0,0,0,0],"id":24,"left_children":[1,3,5,7,9,11,13,15,17,19,21,23,25,-1,-1,27,29,31,33,35,37,-1,-1,39,41,-1,-1,-1,-1,-1,-1,-1,-1,-1,-1,-1,-1,-1,-1,-1,-1,-1,-1],"loss_changes":[1.4381926E2,1.3277863E2,1.47486725E1,1.4787285E2,3.414438E1,1.1769623E1,8.5740256E-1,1.586333E2,6.0346336E1,1.7404617E1,6.0770893E-1,9.251968E0,1.9144108E0,0E0,0E0,1.6157404E2,1.5521278E1,5.284027E1,9.38566E0,1.2061981E1,4.1218042E-2,0E0,0E0,9.47052E0,2.077622E0,0E0,0E0,0E0,0E0,0E0,0E0,0E0,0E0,0E0,0E0,0E0,0E0,0E0,0E0,0E0,0E0,0E0,0E0],"parents":[2147483647,0,0,1,1,2,2,3,3,4,4,5,5,6,6,7,7,8,8,9,9,10,10,11,11,12,12,15,15,16,16,17,17,18,18,19,19,20,20,23,23,24,24],"right_children":[2,4,6,8,10,12,14,16,18,20,22,24,26,-1,-1,28,30,32,34,36,38,-1,-1,40,42,-1,-1,-1,-1,-1,-1,-1,-1,-1,-1,-1,-1,-1,-1,-1,-1,-1,-1],"split_conditions":[7.0910207E-3,2.00063E-2,1.0816858E-2,1.3631061E-2,4.8547763E-2,7.695739E-2,4.558544E0,4.5196027E-2,2.4190841E-2,3.5396863E-2,2.5167732E-2,8.725784E-2,6.664852E-3,3.3450257E-3,-9.457141E-2,2.1771502E-2,1.0660723E-1,3.2258064E-2,8.591348E-2,5.273148E0,9.34072E-2,1.972889E-2,1.2540141E-1,1.3939425E-2,1.8524516E-2,-1.227931E-1,2.0564474E-2,2.7459709E-2,-1.0048324E-1,-1.2057662E-1,9.618313E-2,4.322228E-2,-8.108842E-2,1.1207958E-1,-9.992822E-2,-1.24874346E-1,4.5044627E-2,3.16847E-2,1.1186477E-1,1.16167724E-1,-6.861868E-2,2.7863387E-2,-1.2060852E-1],"split_indices":[1486,43,906,1870,1377,1132,2002,42,1456,1738,1144,1255,884,0,0,1861,1392,2014,1131,2002,1738,0,0,332,1025,0,0,0,0,0,0,0,0,0,0,0,0,0,0,0,0,0,0],"split_type":[0,0,0,0,0,0,0,0,0,0,0,0,0,0,0,0,0,0,0,0,0,0,0,0,0,0,0,0,0,0,0,0,0,0,0,0,0,0,0,0,0,0,0],"sum_hessian":[2.3735044E3,2.2363137E3,1.3719058E2,2.1007205E3,1.3559329E2,1.3304361E2,4.146976E0,1.7248969E3,3.758237E2,1.2933392E2,6.2593675E0,1.30265E2,2.7786005E0,1.0595201E0,3.087456E0,1.6303862E3,9.451053E1,3.522481E2,2.357559E1,1.2622128E2,3.1126425E0,1.0567464E0,5.202621E0,1.2788263E2,2.3823726E0,1.7496047E0,1.0289959E0,1.5258336E3,1.0455264E2,9.179299E1,2.7175374E0,3.77222E1,3.145259E2,2.2044865E1,1.5307264E0,1.2237036E2,3.8509226E0,1.148661E0,1.9639815E0,1.2566174E2,2.220884E0,1.070059E0,1.3123137E0],"tree_param":{"num_deleted":"0","num_feature":"2026","num_nodes":"43","size_leaf_vector":"1"}},{"base_weights":[-6.31548E-3,4.6778787E-2,-1.0667061E-1,1.301311E-1,-7.2733706E-1,1.8281208E-1,-1.268616E0,-8.71524E-1,1.3253845E0,2.320351E-1,-1.2067624E0,-1.3005478E0,4.5768715E-2,-9.9449694E-1,2.63147E-1,1.3821457E-1,2.9510377E-2,2.7881725E-2,-1.313499E-1,-1.2909088E-1,1.6226605E-1,-1.4796989E-1,-1.12441E-1,-1.0815274E-1,3.4086328E-2,5.7273068E-2,-1.0202608E-1],"categories":[],"categories_nodes":[],"categories_segments":[],"categories_sizes":[],"default_left":[0,0,0,0,0,0,0,0,0,0,0,0,0,0,0,0,0,0,0,0,0,0,0,0,0,0,0],"id":25,"left_children":[1,3,-1,5,7,9,11,13,15,17,19,21,-1,23,25,-1,-1,-1,-1,-1,-1,-1,-1,-1,-1,-1,-1],"loss_changes":[1.313088E2,1.4341495E2,0E0,1.4805724E2,6.5105736E1,1.3257578E2,4.6159744E0,2.8515854E1,4.4462013E-1,1.3548993E2,1.7887337E1,6.042633E-1,0E0,2.162468E1,8.76531E0,0E0,0E0,0E0,0E0,0E0,0E0,0E0,0E0,0E0,0E0,0E0,0E0],"parents":[2147483647,0,0,1,1,3,3,4,4,5,5,6,6,7,7,8,8,9,9,10,10,11,11,13,13,14,14],"right_children":[2,4,-1,6,8,10,12,14,16,18,20,22,-1,24,26,-1,-1,-1,-1,-1,-1,-1,-1,-1,-1,-1,-1],"split_conditions":[1.5058466E-2,1.1716692E-2,-1.0667061E-1,2.5905007E-2,5.4137293E-2,5.8452748E-2,3.0323805E-3,3.2569423E-2,2.8439313E-3,4.8263337E-2,1.5256225E-1,1.035768E-2,4.5768715E-2,8.968131E-2,2.6168915E-2,1.3821457E-1,2.9510377E-2,2.7881725E-2,-1.313499E-1,-1.2909088E-1,1.6226605E-1,-1.4796989E-1,-1.12441E-1,-1.0815274E-1,3.4086328E-2,5.7273068E-2,-1.0202608E-1],"split_indices":[630,45,0,602,1392,233,1412,3,1317,313,1153,1861,0,376,450,0,0,0,0,0,0,0,0,0,0,0,0],"split_type":[0,0,0,0,0,0,0,0,0,0,0,0,0,0,0,0,0,0,0,0,0,0,0,0,0,0,0],"sum_hessian":[2.3303918E3,2.2201821E3,1.102097E2,2.0051149E3,2.1506725E2,1.933175E3,7.193982E1,2.0148967E2,1.3577573E1,1.8678433E3,6.533177E1,7.087545E1,1.0643728E0,1.8189938E2,1.9590286E1,1.2544913E1,1.0326601E0,1.8137616E3,5.408157E1,6.397299E1,1.3587837E0,3.146816E1,3.9407288E1,1.7094814E2,1.0951244E1,1.6229218E1,3.3610702E0],"tree_param":{"num_deleted":"0","num_feature":"2026","num_nodes":"27","size_leaf_vector":"1"}},{"base_weights":[-6.6540083E-3,3.1538114E-2,-1.438995E0,8.247735E-2,-1.0942742E0,-1.6489424E-1,-1.0103128E-1,1.3185093E-1,-1.1470475E0,-1.1185116E0,6.9642826E-3,1.7070954E-1,-1.4285983E0,-1.30284E0,1.0044597E0,-6.8162577E-3,-1.1326375E0,7.7866316E-3,8.397135E-2,-1.4589992E-1,-1.3242945E-3,-1.3354757E-1,5.8414467E-2,1.23593085E-1,-2.605067E-4,-1.1434158E-1,-2.058594E-2],"categories":[],"categories_nodes":[],"categories_segments":[],"categories_sizes":[],"default_left":[0,0,0,0,0,0,0,0,0,0,0,0,0,0,0,0,0,0,0,0,0,0,0,0,0,0,0],"id":26,"left_children":[1,3,5,7,9,-1,-1,11,13,15,-1,17,19,21,23,-1,25,-1,-1,-1,-1,-1,-1,-1,-1,-1,-1],"loss_changes":[1.2574491E2,1.2849863E2,3.7070236E0,1.30251E2,2.8141937E0,0E0,0E0,1.25232864E2,2.9075912E1,1.3334656E0,0E0,1.249099E2,2.1402283E0,5.564041E0,1.4387336E0,0E0,7.011032E-1,0E0,0E0,0E0,0E0,0E0,0E0,0E0,0E0,0E0,0E0],"parents":[2147483647,0,0,1,1,2,2,3,3,4,4,7,7,8,8,9,9,11,11,12,12,13,13,14,14,16,16],"right_children":[2,4,6,8,10,-1,-1,12,14,16,-1,18,20,22,24,-1,26,-1,-1,-1,-1,-1,-1,-1,-1,-1,-1],"split_conditions":[2.8841278E-2,9.987615E-3,1.5058466E-2,7.6931063E-3,2.5521755E-2,-1.6489424E-1,-1.0103128E-1,1.06685115E-2,6.414302E-2,3.288889E0,6.9642826E-3,4.857977E-3,4.9579988E0,5.289516E-2,3.581229E-2,-6.8162577E-3,3.7570726E-2,7.7866316E-3,8.397135E-2,-1.4589992E-1,-1.3242945E-3,-1.3354757E-1,5.8414467E-2,1.23593085E-1,-2.605067E-4,-1.1434158E-1,-2.058594E-2],"split_indices":[1908,1983,630,941,1000,0,0,1067,928,2002,0,271,2002,852,1144,0,858,0,0,0,0,0,0,0,0,0,0],"split_type":[0,0,0,0,0,0,0,0,0,0,0,0,0,0,0,0,0,0,0,0,0,0,0,0,0,0,0],"sum_hessian":[2.2968064E3,2.2381072E3,5.8699192E1,2.1421106E3,9.59966E1,3.749128E1,2.120791E1,2.06027E3,8.1840744E1,9.407656E1,1.9200383E0,2.0110802E3,4.9189693E1,7.668255E1,5.158194E0,1.3257285E0,9.275083E1,1.7669784E3,2.441018E2,4.8125168E1,1.0645287E0,7.566616E1,1.0163894E0,4.0093875E0,1.1488068E0,9.145348E1,1.2973521E0],"tree_param":{"num_deleted":"0","num_feature":"2026","num_nodes":"27","size_leaf_vector":"1"}},{"base_weights":[-6.665102E-3,-5.9808195E-2,9.9958515E-1,-1.1468098E-1,9.9207914E-1,1.0809008E0,-2.9693425E-1,-1.5650396E-1,1.2469909E0,1.0515043E0,-9.967813E-2,1.127705E0,-6.7335707E-1,-8.698161E-1,1.0239768E-1,-1.9517565E-1,1.1536703E0,1.287298E0,-4.5120906E-2,1.0849147E0,-8.335651E-2,1.1773721E0,-3.3095688E-1,-6.7108357E-3,-1.0681571E-1,-1.1127893E-1,1.381511E-2,-2.3190664E-2,1.24434225E-1,1.3364957E-1,-1.0375473E-2,1.3080177E-1,2.7777676E-2,1.1328321E-1,-4.0372122E-2,1.2051002E-1,-6.4002775E-2,-8.255281E-2,4.718671E-2],"categories":[],"categories_nodes":[],"categories_segments":[],"categories_sizes":[],"default_left":[0,0,0,0,0,0,0,0,0,0,0,0,0,0,0,0,0,0,0,0,0,0,0,0,0,0,0,0,0,0,0,0,0,0,0,0,0,0,0],"id":27,"left_children":[1,3,5,7,9,11,13,15,17,19,-1,21,23,25,-1,27,29,31,-1,33,-1,35,37,-1,-1,-1,-1,-1,-1,-1,-1,-1,-1,-1,-1,-1,-1,-1,-1],"loss_changes":[1.2171337E2,1.2489139E2,1.2358276E1,1.1725367E2,1.3727798E1,9.598419E0,6.5834E0,1.0131162E2,4.7811203E0,7.495796E0,0E0,8.013306E0,7.47777E-1,1.571228E0,0E0,1.0280152E2,1.3321754E1,8.95874E-1,0E0,7.823723E0,0E0,5.9105835E0,2.0752902E0,0E0,0E0,0E0,0E0,0E0,0E0,0E0,0E0,0E0,0E0,0E0,0E0,0E0,0E0,0E0,0E0],"parents":[2147483647,0,0,1,1,2,2,3,3,4,4,5,5,6,6,7,7,8,8,9,9,11,11,12,12,13,13,15,15,16,16,17,17,19,19,21,21,22,22],"right_children":[2,4,6,8,10,12,14,16,18,20,-1,22,24,26,-1,28,30,32,-1,34,-1,36,38,-1,-1,-1,-1,-1,-1,-1,-1,-1,-1,-1,-1,-1,-1,-1,-1],"split_conditions":[3.0167627E-3,7.336135E-2,1.4008765E-2,1.8212104E-2,1.01743594E-1,5.7730637E-2,3.1488173E-2,1.0459386E-1,2.0208446E-2,7.6931063E-3,-9.967813E-2,3.8537543E-2,5.0505153E-3,2.7857564E-2,1.0239768E-1,1.3091096E-1,3.2244195E-4,7.1358015E-3,-4.5120906E-2,9.480572E-2,-8.335651E-2,3.3232648E-2,6.27756E-3,-6.7108357E-3,-1.0681571E-1,-1.1127893E-1,1.381511E-2,-2.3190664E-2,1.24434225E-1,1.3364957E-1,-1.0375473E-2,1.3080177E-1,2.7777676E-2,1.1328321E-1,-4.0372122E-2,1.2051002E-1,-6.4002775E-2,-8.255281E-2,4.718671E-2],"split_indices":[1488,1238,803,49,1882,1255,436,1007,1010,941,0,1901,1009,743,0,1559,2012,502,0,1840,0,46,1160,0,0,0,0,0,0,0,0,0,0,0,0,0,0,0,0],"split_type":[0,0,0,0,0,0,0,0,0,0,0,0,0,0,0,0,0,0,0,0,0,0,0,0,0,0,0,0,0,0,0,0,0,0,0,0,0,0,0],"sum_hessian":[2.2739512E3,2.1607747E3,1.1317643E2,2.0544912E3,1.06283676E2,1.0665359E2,6.52284E0,1.9941277E3,6.0363426E1,1.0365779E2,2.6258862E0,1.04229866E2,2.4237285E0,4.787845E0,1.7349951E0,1.9377822E3,5.6345417E1,5.9200264E1,1.1631625E0,1.0226966E2,1.3881261E0,1.00984215E2,3.245649E0,1.4173099E0,1.0064187E0,3.7740958E0,1.0137491E0,1.8903857E3,4.739652E1,4.913803E1,7.2073884E0,5.7719925E1,1.4803389E0,9.931194E1,2.9577234E0,9.97985E1,1.1857171E0,1.9908973E0,1.2547518E0],"tree_param":{"num_deleted":"0","num_feature":"2026","num_nodes":"39","size_leaf_vector":"1"}},{"base_weights":[-5.576478E-3,-6.8366386E-2,8.135983E-1,-1.0433791E-3,-9.9691075E-1,9.0873206E-1,-6.597277E-1,4.937577E-2,-1.2417144E0,-1.0646495E0,6.292358E-1,9.8090214E-1,-8.956077E-2,-1.2110803E0,6.5175533E-1,1.597347E-1,-4.7956E-1,-1.3221213E0,2.515969E-1,-1.1170769E0,8.926074E-1,-2.653507E-2,1.0689799E-1,1.0438694E0,-7.897048E-1,-1.4235176E-1,-4.122073E-3,1.9010684E-2,7.751736E-2,2.0814477E-2,-1.3909827E-1,-5.7771552E-2,9.9456936E-2,-1.3605796E-1,6.70773E-2,7.3637374E-2,-5.3335823E-2,-1.1647286E-1,9.720258E-2,1.0719415E-1,1.7898023E-2,1.0906315E-1,-1.2649687E-1,-9.218795E-2,-1.0144976E-2],"categories":[],"categories_nodes":[],"categories_segments":[],"categories_sizes":[],"default_left":[0,0,0,0,0,0,0,0,0,0,0,0,0,0,0,0,0,0,0,0,0,0,0,0,0,0,0,0,0,0,0,0,0,0,0,0,0,0,0,0,0,0,0,0,0],"id":28,"left_children":[1,3,5,7,9,11,13,15,17,19,21,23,-1,25,27,29,31,33,35,37,39,-1,-1,41,43,-1,-1,-1,-1,-1,-1,-1,-1,-1,-1,-1,-1,-1,-1,-1,-1,-1,-1,-1,-1],"loss_changes":[1.1576947E2,1.3067685E2,2.3059082E1,1.2204796E2,1.6236435E1,2.0533844E1,8.236103E0,1.09520966E2,9.481354E0,1.4956451E1,2.7540655E0,1.7058685E1,0E0,1.830164E0,6.33446E-2,1.1679952E2,4.7442398E1,6.46624E0,2.1938343E0,1.4365494E1,3.3345485E-1,0E0,0E0,1.6607452E1,4.1316104E-1,0E0,0E0,0E0,0E0,0E0,0E0,0E0,0E0,0E0,0E0,0E0,0E0,0E0,0E0,0E0,0E0,0E0,0E0,0E0,0E0],"parents":[2147483647,0,0,1,1,2,2,3,3,4,4,5,5,6,6,7,7,8,8,9,9,10,10,11,11,13,13,14,14,15,15,16,16,17,17,18,18,19,19,20,20,23,23,24,24],"right_children":[2,4,6,8,10,12,14,16,18,20,22,24,-1,26,28,30,32,34,36,38,40,-1,-1,42,44,-1,-1,-1,-1,-1,-1,-1,-1,-1,-1,-1,-1,-1,-1,-1,-1,-1,-1,-1,-1],"split_conditions":[1.744571E-2,9.569872E-3,2.0191358E-2,9.996217E-3,1.432542E-2,1.5058466E-2,4.4468083E0,1.0810187E-2,4.1663643E-2,7.454841E-2,2.1269104E-2,3.9350037E-2,-8.956077E-2,3.210466E-2,2.9978821E-2,2.8841278E-2,4.957054E-2,9.847188E-3,2.0912018E-2,1.27713E-1,4.9495823E-3,-2.653507E-2,1.0689799E-1,3.8526684E-2,6.265587E-3,-1.4235176E-1,-4.122073E-3,1.9010684E-2,7.751736E-2,2.0814477E-2,-1.3909827E-1,-5.7771552E-2,9.9456936E-2,-1.3605796E-1,6.70773E-2,7.3637374E-2,-5.3335823E-2,-1.1647286E-1,9.720258E-2,1.0719415E-1,1.7898023E-2,1.0906315E-1,-1.2649687E-1,-9.218795E-2,-1.0144976E-2],"split_indices":[1456,1433,624,1132,1488,630,2002,1870,376,1147,614,978,0,1163,1457,1908,1912,132,1929,1934,40,0,0,854,887,0,0,0,0,0,0,0,0,0,0,0,0,0,0,0,0,0,0,0,0],"split_type":[0,0,0,0,0,0,0,0,0,0,0,0,0,0,0,0,0,0,0,0,0,0,0,0,0,0,0,0,0,0,0,0,0,0,0,0,0,0,0,0,0,0,0,0,0],"sum_hessian":[2.2486704E3,2.0894316E3,1.5923882E2,1.9491145E3,1.4031712E2,1.4994026E2,9.298551E0,1.8739211E3,7.519335E1,1.3503731E2,5.279816E0,1.4461241E2,5.3278494E0,6.6003103E0,2.6982403E0,1.551011E3,3.2291013E2,7.146024E1,3.7331154E0,1.3193259E2,3.1047096E0,1.8707215E0,3.4090946E0,1.400426E2,4.56982E0,5.402442E0,1.1978683E0,1.1050656E0,1.5931747E0,1.5048971E3,4.6113888E1,3.0332144E2,1.9588684E1,7.041861E1,1.0416328E0,2.346093E0,1.3870224E0,1.2942297E2,2.5096207E0,2.0799232E0,1.0247865E0,1.3777971E2,2.2628963E0,3.548844E0,1.020976E0],"tree_param":{"num_deleted":"0","num_feature":"2026","num_nodes":"45","size_leaf_vector":"1"}},{"base_weights":[-5.5441954E-3,-7.498337E-2,7.1808726E-1,-2.4338327E-2,-1.0840229E0,7.915278E-1,-8.633135E-1,2.5348257E-2,-1.1081553E0,-1.1440307E0,1.3611004E-1,8.7797976E-1,-6.6078955E-1,-1.1832656E0,8.567206E-2,1.3655882E-1,-5.186755E-1,-1.1647271E0,6.999772E-2,-1.2066832E0,8.502123E-1,9.363548E-1,-1.20478235E-1,-8.7737846E-1,6.796073E-2,-1.334592E-1,-5.954895E-3,2.0695418E-2,-9.745151E-2,-6.07209E-2,1.368605E-1,-1.205524E-1,4.430952E-2,-1.2553851E-1,9.528118E-2,1.2014969E-1,2.4018998E-3,9.885957E-2,-1.1823074E-1,-1.0650486E-1,3.8426295E-2],"categories":[],"categories_nodes":[],"categories_segments":[],"categories_sizes":[],"default_left":[0,0,0,0,0,0,0,0,0,0,0,0,0,0,0,0,0,0,0,0,0,0,0,0,0,0,0,0,0,0,0,0,0,0,0,0,0,0,0,0,0],"id":29,"left_children":[1,3,5,7,9,11,13,15,17,19,-1,21,23,25,-1,27,29,31,-1,33,35,37,-1,39,-1,-1,-1,-1,-1,-1,-1,-1,-1,-1,-1,-1,-1,-1,-1,-1,-1],"loss_changes":[1.11578316E2,1.0351001E2,2.3263641E1,1.03973366E2,1.5761253E1,2.397348E1,6.0254235E0,1.1179231E2,9.472366E0,1.2899506E1,0E0,2.2560455E1,3.800889E0,1.2976427E0,0E0,1.20180664E2,5.3233833E1,5.941803E0,0E0,1.0929779E1,9.8150635E-1,2.020996E1,0E0,2.7626266E0,0E0,0E0,0E0,0E0,0E0,0E0,0E0,0E0,0E0,0E0,0E0,0E0,0E0,0E0,0E0,0E0,0E0],"parents":[2147483647,0,0,1,1,2,2,3,3,4,4,5,5,6,6,7,7,8,8,9,9,11,11,12,12,13,13,15,15,16,16,17,17,19,19,20,20,21,21,23,23],"right_children":[2,4,6,8,10,12,14,16,18,20,-1,22,24,26,-1,28,30,32,-1,34,36,38,-1,40,-1,-1,-1,-1,-1,-1,-1,-1,-1,-1,-1,-1,-1,-1,-1,-1,-1],"split_conditions":[6.220817E-2,2.0801205E-2,1.1462719E-1,9.119393E-3,1.5260471E-1,8.818999E-2,7.0910207E-3,1.3631061E-2,4.302158E-2,1.1422082E-1,1.3611004E-1,4.0396594E-2,1.2708743E-1,2.27E2,8.567206E-2,2.00063E-2,1.2030812E-3,7.576945E-2,6.999772E-2,1.1176285E-1,1E0,8.254839E-3,-1.20478235E-1,2.3468673E-1,6.796073E-2,-1.334592E-1,-5.954895E-3,2.0695418E-2,-9.745151E-2,-6.07209E-2,1.368605E-1,-1.205524E-1,4.430952E-2,-1.2553851E-1,9.528118E-2,1.2014969E-1,2.4018998E-3,9.885957E-2,-1.1823074E-1,-1.0650486E-1,3.8426295E-2],"split_indices":[743,999,702,628,1439,1664,1486,1870,19,1057,0,938,1630,2001,0,43,1673,306,0,1019,2016,495,0,1196,0,0,0,0,0,0,0,0,0,0,0,0,0,0,0,0,0],"split_type":[0,0,0,0,0,0,0,0,0,0,0,0,0,0,0,0,0,0,0,0,0,0,0,0,0,0,0,0,0,0,0,0,0,0,0,0,0,0,0,0,0],"sum_hessian":[2.2184644E3,2.0250394E3,1.9342502E2,1.9292328E3,9.5806656E1,1.8531828E2,8.106735E0,1.8455996E3,8.3633194E1,9.403108E1,1.7755811E0,1.7527988E2,1.0038405E1,7.098396E0,1.0083392E0,1.5329745E3,3.126251E2,8.144095E1,2.1922398E0,9.154981E1,2.4812698E0,1.7103653E2,4.2433367E0,8.939366E0,1.0990397E0,6.090547E0,1.0078486E0,1.4424006E3,9.0573814E1,2.9926468E2,1.3360421E1,7.966963E1,1.771323E0,8.99401E1,1.6097064E0,1.4222815E0,1.0589882E0,1.6744124E2,3.595292E0,7.9174604E0,1.0219055E0],"tree_param":{"num_deleted":"0","num_feature":"2026","num_nodes":"41","size_leaf_vector":"1"}},{"base_weights":[-5.442682E-3,-4.27177E-2,1.30945E0,-9.952323E-2,8.7004036E-1,1.3951428E0,-8.8647306E-2,-5.108407E-2,-1.2169247E0,9.810154E-1,-1.0367215E-1,1.4590012E0,-3.1613447E-2,1.677112E-2,-8.316257E-1,-1.3190053E0,1.258312E-1,1.0269938E0,-8.0726765E-2,1.4987742E0,-3.1013653E-2,6.595531E-3,-1.22108035E-1,-9.0473704E-2,9.909158E-2,-1.3909088E-1,5.1470336E-2,1.0752739E-1,-7.5694926E-2,1.5725075E-1,5.972248E-2],"categories":[],"categories_nodes":[],"categories_segments":[],"categories_sizes":[],"default_left":[0,0,0,0,0,0,0,0,0,0,0,0,0,0,0,0,0,0,0,0,0,0,0,0,0,0,0,0,0,0,0],"id":30,"left_children":[1,3,5,7,9,11,-1,13,15,17,-1,19,-1,21,23,25,-1,27,-1,29,-1,-1,-1,-1,-1,-1,-1,-1,-1,-1,-1],"loss_changes":[1.0725184E2,1.1041156E2,1.2588066E1,1.0840724E2,2.7418076E1,6.848213E0,0E0,1.0179958E2,2.2687317E1,1.056572E1,0E0,4.4419174E0,0E0,1.07786354E2,2.1380272E1,1.1318314E1,0E0,1.0795433E1,0E0,2.7468796E0,0E0,0E0,0E0,0E0,0E0,0E0,0E0,0E0,0E0,0E0,0E0],"parents":[2147483647,0,0,1,1,2,2,3,3,4,4,5,5,7,7,8,8,9,9,11,11,13,13,14,14,15,15,17,17,19,19],"right_children":[2,4,6,8,10,12,-1,14,16,18,-1,20,-1,22,24,26,-1,28,-1,30,-1,-1,-1,-1,-1,-1,-1,-1,-1,-1,-1],"split_conditions":[7.7158585E-2,8.986102E-3,9.987615E-3,8.020324E-3,7.814813E-3,4.798938E-3,-8.8647306E-2,2.7190777E-2,7.280191E-3,3.810838E-2,-1.0367215E-1,8.668542E-3,-3.1613447E-2,1.7579785E-2,4.5927133E-2,4.909238E-2,1.258312E-1,5.5987965E-2,-8.0726765E-2,3.06E2,-3.1013653E-2,6.595531E-3,-1.22108035E-1,-9.0473704E-2,9.909158E-2,-1.3909088E-1,5.1470336E-2,1.0752739E-1,-7.5694926E-2,1.5725075E-1,5.972248E-2],"split_indices":[1428,1962,1983,766,425,1757,0,45,1949,1861,0,1815,0,602,1392,614,0,820,0,2001,0,0,0,0,0,0,0,0,0,0,0],"split_type":[0,0,0,0,0,0,0,0,0,0,0,0,0,0,0,0,0,0,0,0,0,0,0,0,0,0,0,0,0,0,0],"sum_hessian":[2.186107E3,2.1267837E3,5.932326E1,2.0030168E3,1.2376688E2,5.7446175E1,1.8770884E0,1.9207964E3,8.222048E1,1.1741853E2,6.3483424E0,5.5521732E1,1.924444E0,1.7680704E3,1.5272598E2,7.9412575E1,2.8079133E0,1.14890305E2,2.5282276E0,5.4450424E1,1.0713084E0,1.701414E3,6.665644E1,1.4731982E2,5.4061584E0,7.6648506E1,2.7640676E0,1.12249664E2,2.6406405E0,4.9645905E1,4.804518E0],"tree_param":{"num_deleted":"0","num_feature":"2026","num_nodes":"31","size_leaf_vector":"1"}},{"base_weights":[-5.2602454E-3,-6.944322E-2,7.3793143E-1,-1.1535208E-1,1.0648832E0,5.6510067E-1,1.729733E0,-1.5201941E-1,1.2792357E0,1.107014E0,-6.2366437E-2,6.592049E-1,-1.0058553E0,3.8219552E-2,1.7708542E0,-1.9747353E-1,1.0427392E0,1.3686069E0,-4.674379E-1,1.1503812E0,-5.39588E-2,7.2878414E-1,-1.0279266E-1,-1.08976714E-1,-2.2165705E-2,1.855402E-1,8.818016E-2,-2.3654066E-2,1.14623085E-1,1.13282315E-1,-9.954276E-2,1.4330527E-1,-5.8469296E-2,-5.685185E-3,-6.40245E-2,1.18742086E-1,-5.4204524E-2,7.995335E-2,-7.407329E-2],"categories":[],"categories_nodes":[],"categories_segments":[],"categories_sizes":[],"default_left":[0,0,0,0,0,0,0,0,0,0,0,0,0,0,0,0,0,0,0,0,0,0,0,0,0,0,0,0,0,0,0,0,0,0,0,0,0,0,0],"id":31,"left_children":[1,3,5,7,9,11,13,15,17,19,-1,21,23,-1,25,27,29,31,33,35,-1,37,-1,-1,-1,-1,-1,-1,-1,-1,-1,-1,-1,-1,-1,-1,-1,-1,-1],"loss_changes":[1.03274055E2,1.0390305E2,2.8525284E1,9.818388E1,6.212036E0,2.2550995E1,7.116318E-1,1.01654045E2,8.319786E0,6.0540314E0,0E0,1.7218159E1,3.3512688E-1,0E0,1.7087555E-1,9.478438E1,1.372744E1,6.7617188E0,1.8640566E-1,5.310951E0,0E0,1.4661377E1,0E0,0E0,0E0,0E0,0E0,0E0,0E0,0E0,0E0,0E0,0E0,0E0,0E0,0E0,0E0,0E0,0E0],"parents":[2147483647,0,0,1,1,2,2,3,3,4,4,5,5,6,6,7,7,8,8,9,9,11,11,12,12,14,14,15,15,16,16,17,17,18,18,19,19,21,21],"right_children":[2,4,6,8,10,12,14,16,18,20,-1,22,24,-1,26,28,30,32,34,36,-1,38,-1,-1,-1,-1,-1,-1,-1,-1,-1,-1,-1,-1,-1,-1,-1,-1,-1],"split_conditions":[8.265728E-2,8.196824E-2,1.0714385E-2,9.103408E-3,8.76241E-2,3.2090764E-2,6.340549E-2,2.7280359E-2,1.8194992E-2,4.95656E-3,-6.2366437E-2,5.3710874E-2,1.0869565E-2,3.8219552E-2,5.922203E-3,9.949384E-2,1.8072102E-2,3.1414072E-3,7.4547236E-3,7.489559E-2,-5.39588E-2,8.5434265E-2,-1.0279266E-1,-1.08976714E-1,-2.2165705E-2,1.855402E-1,8.818016E-2,-2.3654066E-2,1.14623085E-1,1.13282315E-1,-9.954276E-2,1.4330527E-1,-5.8469296E-2,-5.685185E-3,-6.40245E-2,1.18742086E-1,-5.4204524E-2,7.995335E-2,-7.407329E-2],"split_indices":[614,1559,1153,809,1751,805,1310,928,1477,1265,0,602,2013,0,858,1371,1257,729,1497,45,0,1882,0,0,0,0,0,0,0,0,0,0,0,0,0,0,0,0,0],"split_type":[0,0,0,0,0,0,0,0,0,0,0,0,0,0,0,0,0,0,0,0,0,0,0,0,0,0,0,0,0,0,0,0,0,0,0,0,0,0,0],"sum_hessian":[2.162989E3,1.9918748E3,1.7111426E2,1.915258E3,7.661669E1,1.4705783E2,2.4056433E1,1.8670592E3,4.8198837E1,7.5087585E1,1.529101E0,1.3929413E2,7.7636924E0,1.0172018E0,2.303923E1,1.799435E3,6.762408E1,4.6058628E1,2.1402094E0,7.345435E1,1.6332353E0,1.3432256E2,4.9715815E0,6.6612577E0,1.1024346E0,2.0045944E1,2.9932866E0,1.7493967E3,5.0038357E1,6.5187096E1,2.436978E0,4.4845375E1,1.2132522E0,1.027613E0,1.1125965E0,7.2173195E1,1.2811577E0,1.2858766E2,5.7348814E0],"tree_param":{"num_deleted":"0","num_feature":"2026","num_nodes":"39","size_leaf_vector":"1"}},{"base_weights":[-4.3987203E-3,4.1398924E-2,-1.0327291E0,8.402006E-2,-1.0680497E0,-1.1072047E0,1.1383114E-1,1.3336259E-1,-9.788077E-1,-1.0934634E0,8.883135E-3,-1.1541274E0,8.0129206E-2,1.8086874E-1,-1.0181106E0,-1.1126157E0,6.71334E-1,-1.1096947E0,-1.3591728E-2,-1.2190293E0,-1.2687063E-1,2.2552371E-2,-1.1398689E-1,-1.20312504E-1,4.958975E-2,-1.1647507E-1,8.087393E-2,-5.8727175E-2,1.00635424E-1,-1.12165034E-1,-1.263004E-2,-1.2729785E-1,1.5000025E-3,-6.1913192E-2,6.92069E-2],"categories":[],"categories_nodes":[],"categories_segments":[],"categories_sizes":[],"default_left":[0,0,0,0,0,0,0,0,0,0,0,0,0,0,0,0,0,0,0,0,0,0,0,0,0,0,0,0,0,0,0,0,0,0,0],"id":32,"left_children":[1,3,5,7,9,11,-1,13,15,17,-1,19,-1,21,23,25,27,29,-1,31,33,-1,-1,-1,-1,-1,-1,-1,-1,-1,-1,-1,-1,-1,-1],"loss_changes":[1.0095924E2,9.7140434E1,1.6039124E1,1.038315E2,2.331665E0,8.883942E0,0E0,1.0360213E2,2.0144402E1,1.0061951E0,0E0,5.656021E0,0E0,1.0739018E2,2.162172E1,9.119545E0,3.6324291E0,7.1736145E-1,0E0,5.4688644E0,2.9663444E0,0E0,0E0,0E0,0E0,0E0,0E0,0E0,0E0,0E0,0E0,0E0,0E0,0E0,0E0],"parents":[2147483647,0,0,1,1,2,2,3,3,4,4,5,5,7,7,8,8,9,9,11,11,13,13,14,14,15,15,16,16,17,17,19,19,20,20],"right_children":[2,4,6,8,10,12,-1,14,16,18,-1,20,-1,22,24,26,28,30,-1,32,34,-1,-1,-1,-1,-1,-1,-1,-1,-1,-1,-1,-1,-1,-1],"split_conditions":[8.706153E-3,9.987615E-3,5.6141842E-2,4.5196027E-2,2.9146267E-2,3.6711242E-2,1.1383114E-1,9.996217E-3,2.4950951E-2,2.5434976E-2,8.883135E-3,4.125762E-2,8.0129206E-2,1.3835987E-2,8.017702E-3,1.0660723E-1,3.6500957E0,3.876693E-2,-1.3591728E-2,1.3442659E-2,1.7733902E-2,2.2552371E-2,-1.1398689E-1,-1.20312504E-1,4.958975E-2,-1.1647507E-1,8.087393E-2,-5.8727175E-2,1.00635424E-1,-1.12165034E-1,-1.263004E-2,-1.2729785E-1,1.5000025E-3,-6.1913192E-2,6.92069E-2],"split_indices":[955,1983,225,42,1000,160,0,1132,1160,1940,0,3,0,1017,1456,1392,2002,1493,0,376,1160,0,0,0,0,0,0,0,0,0,0,0,0,0,0],"split_type":[0,0,0,0,0,0,0,0,0,0,0,0,0,0,0,0,0,0,0,0,0,0,0,0,0,0,0,0,0,0,0,0,0,0,0],"sum_hessian":[2.141823E3,2.051421E3,9.0402176E1,1.9764181E3,7.50028E1,8.7877625E1,2.524549E0,1.889568E3,8.6850006E1,7.344424E1,1.5585687E0,8.615468E1,1.7229471E0,1.8155088E3,7.405926E1,8.063699E1,6.2130103E0,7.20638E1,1.3804395E0,8.085932E1,5.295359E0,1.7569349E3,5.8573822E1,6.617758E1,7.8816786E0,7.889014E1,1.7468581E0,1.1478428E0,5.0651674E0,7.1059296E1,1.0044955E0,7.744215E1,3.4171715E0,3.4597194E0,1.8356397E0],"tree_param":{"num_deleted":"0","num_feature":"2026","num_nodes":"35","size_leaf_vector":"1"}},{"base_weights":[-4.750067E-3,3.9256815E-2,-1.04955934E-1,9.0199426E-2,-9.209684E-1,1.3025697E-1,-1.1420271E0,-9.6522444E-1,8.901181E-2,1.752216E-1,-1.0513397E0,-1.2091411E0,1.154527E-1,-1.0024788E0,8.760847E-2,2.2390889E-2,-1.0070169E-1,-1.0817283E-1,1.2915057E-2,-1.256046E-1,5.3489804E-2,-1.0320043E-1,8.657463E-2],"categories":[],"categories_nodes":[],"categories_segments":[],"categories_sizes":[],"default_left":[0,0,0,0,0,0,0,0,0,0,0,0,0,0,0,0,0,0,0,0,0,0,0],"id":33,"left_children":[1,3,-1,5,7,9,11,13,-1,15,17,19,-1,21,-1,-1,-1,-1,-1,-1,-1,-1,-1],"loss_changes":[9.739659E1,9.951939E1,0E0,9.547673E1,9.074745E0,9.9610405E1,1.0783813E1,7.774681E0,0E0,1.04042206E2,2.6058426E0,5.5528793E0,0E0,6.3547287E0,0E0,0E0,0E0,0E0,0E0,0E0,0E0,0E0,0E0],"parents":[2147483647,0,0,1,1,3,3,4,4,5,5,6,6,7,7,9,9,10,10,11,11,13,13],"right_children":[2,4,-1,6,8,10,12,14,-1,16,18,20,-1,22,-1,-1,-1,-1,-1,-1,-1,-1,-1],"split_conditions":[1.5058466E-2,7.2087552E-3,-1.04955934E-1,5.8452748E-2,1.0854175E-1,1.3098954E-2,1.5256225E-1,2.3162479E-2,8.901181E-2,8.098174E-3,3.8061813E-2,1.6921988E-1,1.154527E-1,5.9461787E-2,8.760847E-2,2.2390889E-2,-1.0070169E-1,-1.0817283E-1,1.2915057E-2,-1.256046E-1,5.3489804E-2,-1.0320043E-1,8.657463E-2],"split_indices":[630,978,0,233,1589,1983,1153,49,0,313,615,1131,0,1625,0,0,0,0,0,0,0,0,0],"split_type":[0,0,0,0,0,0,0,0,0,0,0,0,0,0,0,0,0,0,0,0,0,0,0],"sum_hessian":[2.116397E3,2.0317817E3,8.461527E1,1.9302811E3,1.01500694E2,1.8703728E3,5.9908268E1,9.953548E1,1.9652182E0,1.8026271E3,6.774572E1,5.866729E1,1.2409797E0,9.800808E1,1.5273947E0,1.7321056E3,7.0521454E1,6.612712E1,1.6185969E0,5.740327E1,1.2640182E0,9.6923904E1,1.0841779E0],"tree_param":{"num_deleted":"0","num_feature":"2026","num_nodes":"23","size_leaf_vector":"1"}},{"base_weights":[-5.0140084E-3,-4.8851248E-2,1.0275474E0,-1.0046686E-1,8.702822E-1,1.1105773E0,-3.397117E-1,-6.000772E-2,-1.2616469E0,9.458432E-1,-1.0914203E0,1.1551299E0,-8.257251E-2,-8.494734E-1,5.428171E-2,-1.0214818E-1,1.0125831E0,-1.3215433E0,2.5013337E-1,9.9782085E-1,-6.555989E-2,-1.23164415E-1,-3.1379916E-2,1.198773E0,-6.6900894E-2,-1.0596993E-1,-1.2267871E-2,-1.5116467E-2,8.590577E-2,1.0719174E-1,-8.8257186E-2,-1.355196E-1,3.4745123E-2,-4.2883553E-2,7.741088E-2,1.0422658E-1,-7.039035E-2,1.23359226E-1,-5.6597468E-2],"categories":[],"categories_nodes":[],"categories_segments":[],"categories_sizes":[],"default_left":[0,0,0,0,0,0,0,0,0,0,0,0,0,0,0,0,0,0,0,0,0,0,0,0,0,0,0,0,0,0,0,0,0,0,0,0,0,0,0],"id":34,"left_children":[1,3,5,7,9,11,13,15,17,19,21,23,-1,25,-1,27,29,31,33,35,-1,-1,-1,37,-1,-1,-1,-1,-1,-1,-1,-1,-1,-1,-1,-1,-1,-1,-1],"loss_changes":[9.4636505E1,9.5230774E1,1.0043488E1,8.917497E1,1.685373E1,7.898918E0,2.998652E0,8.3127205E1,6.118042E0,9.253906E0,9.580898E-2,7.100258E0,0E0,4.7584534E-1,0E0,8.344324E1,8.764511E0,3.9328003E0,1.4976671E0,8.331924E0,0E0,0E0,0E0,5.467865E0,0E0,0E0,0E0,0E0,0E0,0E0,0E0,0E0,0E0,0E0,0E0,0E0,0E0,0E0,0E0],"parents":[2147483647,0,0,1,1,2,2,3,3,4,4,5,5,6,6,7,7,8,8,9,9,10,10,11,11,13,13,15,15,16,16,17,17,18,18,19,19,23,23],"right_children":[2,4,6,8,10,12,14,16,18,20,22,24,-1,26,-1,28,30,32,34,36,-1,-1,-1,38,-1,-1,-1,-1,-1,-1,-1,-1,-1,-1,-1,-1,-1,-1,-1],"split_conditions":[4.569056E-2,4.9742917E-3,2.2306347E-2,2.1931894E-2,8.966925E-3,5.5777706E-2,1.0637634E-1,7.637738E-2,3.5812788E-2,8.812893E-3,4.993605E-3,9.996217E-3,-8.257251E-2,6.664852E-3,5.428171E-2,9.354573E-2,8.047997E-3,6.6899724E-2,1.8562978E-2,5.2546773E-2,-6.555989E-2,-1.23164415E-1,-3.1379916E-2,9.523073E-3,-6.6900894E-2,-1.0596993E-1,-1.2267871E-2,-1.5116467E-2,8.590577E-2,1.0719174E-1,-8.8257186E-2,-1.355196E-1,3.4745123E-2,-4.2883553E-2,7.741088E-2,1.0422658E-1,-7.039035E-2,1.23359226E-1,-5.6597468E-2],"split_indices":[1069,1489,1879,1123,1744,628,1069,1912,1583,1258,731,1132,0,884,0,376,854,1844,306,602,0,0,0,837,0,0,0,0,0,0,0,0,0,0,0,0,0,0,0],"split_type":[0,0,0,0,0,0,0,0,0,0,0,0,0,0,0,0,0,0,0,0,0,0,0,0,0,0,0,0,0,0,0,0,0,0,0,0,0,0,0],"sum_hessian":[2.0886292E3,2.0044818E3,8.4147285E1,1.898745E3,1.057368E2,7.950678E1,4.6404967E0,1.8358306E3,6.29144E1,1.0231371E2,3.4230862E0,7.8112915E1,1.3938715E0,2.9652052E0,1.6752913E0,1.7673008E3,6.8529785E1,6.063777E1,2.276625E0,9.946241E1,2.8513038E0,2.4054615E0,1.0176246E0,7.662252E1,1.4903924E0,1.9446647E0,1.0205405E0,1.6823523E3,8.494846E1,6.687057E1,1.6592203E0,5.9623577E1,1.0141952E0,1.0707356E0,1.2058892E0,9.730848E1,2.153936E0,7.5435135E1,1.1873878E0],"tree_param":{"num_deleted":"0","num_feature":"2026","num_nodes":"39","size_leaf_vector":"1"}},{"base_weights":[-4.508381E-3,-6.285669E-2,7.3987347E-1,-1.1111107E-1,8.9177275E-1,8.143265E-1,-1.0134593E0,-1.4375482E-1,1.2901825E0,9.61214E-1,-5.4720986E-1,8.671441E-1,-8.2113516E-1,-1.14866994E-1,-1.5174066E-2,-1.8954493E-1,8.4192073E-1,1.3694394E-1,-2.4202958E-2,1.0173111E0,-5.091624E-1,-9.39145E-2,2.4127595E-2,9.227198E-1,-5.1948345E-1,-1.07205965E-1,5.083483E-3,-2.3926025E-2,6.780275E-2,9.237721E-2,-8.8305704E-2,1.0742555E-1,-1.2578688E-2,1.4334503E-2,-8.0883935E-2,9.6204E-2,-7.658086E-2,-8.135972E-2,3.5411425E-2],"categories":[],"categories_nodes":[],"categories_segments":[],"categories_sizes":[],"default_left":[0,0,0,0,0,0,0,0,0,0,0,0,0,0,0,0,0,0,0,0,0,0,0,0,0,0,0,0,0,0,0,0,0,0,0,0,0,0,0],"id":35,"left_children":[1,3,5,7,9,11,13,15,17,19,21,23,25,-1,-1,27,29,-1,-1,31,33,-1,-1,35,37,-1,-1,-1,-1,-1,-1,-1,-1,-1,-1,-1,-1,-1,-1],"loss_changes":[8.987905E1,8.8491714E1,2.0460762E1,8.377836E1,9.762848E0,1.3223801E1,5.914941E-1,8.080199E1,5.395653E0,7.8215637E0,1.7386053E0,1.1329651E1,1.1583459E0,0E0,0E0,7.38407E1,1.2040806E1,0E0,0E0,5.7087097E0,8.82553E-1,0E0,0E0,9.748497E0,1.846559E0,0E0,0E0,0E0,0E0,0E0,0E0,0E0,0E0,0E0,0E0,0E0,0E0,0E0,0E0],"parents":[2147483647,0,0,1,1,2,2,3,3,4,4,5,5,6,6,7,7,8,8,9,9,10,10,11,11,12,12,15,15,16,16,19,19,20,20,23,23,24,24],"right_children":[2,4,6,8,10,12,14,16,18,20,22,24,26,-1,-1,28,30,-1,-1,32,34,-1,-1,36,38,-1,-1,-1,-1,-1,-1,-1,-1,-1,-1,-1,-1,-1,-1],"split_conditions":[1.2998583E-2,7.336135E-2,7.6931063E-3,5.0882697E-3,1.0087037E-2,2.1347407E-2,2.227066E-2,4.7857214E-2,8.167675E-3,5.906469E-3,7.866991E-2,4.5648303E-2,1.6271727E-2,-1.14866994E-1,-1.5174066E-2,9.692388E-2,9.987615E-3,1.3694394E-1,-2.4202958E-2,1.5067911E-1,6.92705E-3,-9.39145E-2,2.4127595E-2,1.5058466E-2,1.985538E-2,-1.07205965E-1,5.083483E-3,-2.3926025E-2,6.780275E-2,9.237721E-2,-8.8305704E-2,1.0742555E-1,-1.2578688E-2,1.4334503E-2,-8.0883935E-2,9.6204E-2,-7.658086E-2,-8.135972E-2,3.5411425E-2],"split_indices":[19,1238,941,48,1882,1225,1384,1007,624,803,803,961,887,0,0,858,1983,0,0,2014,1202,0,0,630,271,0,0,0,0,0,0,0,0,0,0,0,0,0,0],"split_type":[0,0,0,0,0,0,0,0,0,0,0,0,0,0,0,0,0,0,0,0,0,0,0,0,0,0,0,0,0,0,0,0,0,0,0,0,0,0,0],"sum_hessian":[2.0672817E3,1.9178655E3,1.4941617E2,1.8264272E3,9.1438194E1,1.4384358E2,5.57258E0,1.7857255E3,4.0701855E1,8.754551E1,3.892684E0,1.3979854E2,4.04504E0,4.5289516E0,1.043628E0,1.7072231E3,7.8502304E1,3.8801025E1,1.9008303E0,8.462506E1,2.9204476E0,2.4725645E0,1.4201195E0,1.3473305E2,5.065503E0,2.9629357E0,1.0821044E0,1.6153796E3,9.184342E1,7.5389496E1,3.1128085E0,8.066681E1,3.9582555E0,1.0833223E0,1.8371253E0,1.3208742E2,2.6456246E0,3.841028E0,1.2244751E0],"tree_param":{"num_deleted":"0","num_feature":"2026","num_nodes":"39","size_leaf_vector":"1"}},{"base_weights":[-3.864229E-3,2.7401831E-2,-1.3612269E0,5.9522256E-2,-1.3504092E0,-1.4846723E-1,-9.5959686E-2,1.0188059E-1,-1.0348216E0,-1.3781766E0,-9.391228E-3,1.672573E-1,-6.093685E-1,-1.0916597E0,6.2250968E-2,-1.4435709E-1,-9.1848165E-2,1.0394762E-2,9.478092E-2,-7.4169E-2,1.1527802E-1,-1.17419355E-1,-5.4409127E-3],"categories":[],"categories_nodes":[],"categories_segments":[],"categories_sizes":[],"default_left":[0,0,0,0,0,0,0,0,0,0,0,0,0,0,0,0,0,0,0,0,0,0,0],"id":36,"left_children":[1,3,5,7,9,-1,-1,11,13,15,-1,17,19,21,-1,-1,-1,-1,-1,-1,-1,-1,-1],"loss_changes":[8.68533E1,8.861728E1,8.5987854E-1,9.0772675E1,1.4621735E0,0E0,0E0,8.770502E1,7.553917E0,1.3618469E-2,0E0,8.520244E1,3.7884552E1,6.0074615E0,0E0,0E0,0E0,0E0,0E0,0E0,0E0,0E0,0E0],"parents":[2147483647,0,0,1,1,2,2,3,3,4,4,7,7,8,8,9,9,11,11,12,12,13,13],"right_children":[2,4,6,8,10,-1,-1,12,14,16,-1,18,20,22,-1,-1,-1,-1,-1,-1,-1,-1,-1],"split_conditions":[2.8841278E-2,1.06685115E-2,1.5058466E-2,9.119393E-3,4.974684E0,-1.4846723E-1,-9.5959686E-2,1.1716692E-2,4.302158E-2,1.5058466E-2,-9.391228E-3,6.8483483E-3,5.4137293E-2,3.445737E-2,6.2250968E-2,-1.4435709E-1,-9.1848165E-2,1.0394762E-2,9.478092E-2,-7.4169E-2,1.1527802E-1,-1.17419355E-1,-5.4409127E-3],"split_indices":[1908,1067,630,628,2002,0,0,45,19,630,0,1226,1392,3,0,0,0,0,0,0,0,0,0],"split_type":[0,0,0,0,0,0,0,0,0,0,0,0,0,0,0,0,0,0,0,0,0,0,0],"sum_hessian":[2.0446473E3,1.9995682E3,4.5079082E1,1.95495E3,4.4618267E1,3.2418335E1,1.2660747E1,1.8829734E3,7.197659E1,4.355882E1,1.0594486E0,1.7251643E3,1.5780908E2,6.992001E1,2.056586E0,3.6260296E1,7.2985215E0,1.5967842E3,1.2838014E2,1.4732536E2,1.0483709E1,6.464425E1,5.2757587E0],"tree_param":{"num_deleted":"0","num_feature":"2026","num_nodes":"23","size_leaf_vector":"1"}},{"base_weights":[-3.989258E-3,-5.191291E-2,8.5610765E-1,-8.2904324E-2,1.3576732E0,9.153078E-1,-6.222413E-1,-1.1581724E-1,1.2331645E0,1.3734749E-1,3.9718002E-2,9.573683E-1,-8.0016114E-2,3.2766383E-2,-9.977009E-2,-1.5457135E-1,9.73227E-1,1.2871482E0,-5.5844553E-2,1.0017389E0,-5.1868206E-1,-8.13834E-3,-7.800626E-2,1.06125474E-1,-9.857313E-2,1.3327758E-1,-3.507928E-2,1.0564058E-1,-1.9932836E-2,-9.238198E-2,6.216982E-3],"categories":[],"categories_nodes":[],"categories_segments":[],"categories_sizes":[],"default_left":[0,0,0,0,0,0,0,0,0,0,0,0,0,0,0,0,0,0,0,0,0,0,0,0,0,0,0,0,0,0,0],"id":37,"left_children":[1,3,5,7,9,11,13,15,17,-1,-1,19,-1,-1,-1,21,23,25,-1,27,29,-1,-1,-1,-1,-1,-1,-1,-1,-1,-1],"loss_changes":[8.353091E1,8.396523E1,9.930183E0,8.153857E1,8.2084656E-2,8.215363E0,2.0079591E0,7.756256E1,5.1613846E0,0E0,0E0,7.1492615E0,0E0,0E0,0E0,8.105731E1,1.1938416E1,3.822586E0,0E0,6.6854324E0,9.0765685E-1,0E0,0E0,0E0,0E0,0E0,0E0,0E0,0E0,0E0,0E0],"parents":[2147483647,0,0,1,1,2,2,3,3,4,4,5,5,6,6,7,7,8,8,11,11,15,15,16,16,17,17,19,19,20,20],"right_children":[2,4,6,8,10,12,14,16,18,-1,-1,20,-1,-1,-1,22,24,26,-1,28,30,-1,-1,-1,-1,-1,-1,-1,-1,-1,-1],"split_conditions":[7.0910207E-3,6.932624E-2,2.6175406E-2,7.182447E-2,2.1288931E-2,7.532437E-2,4.424318E0,3.0144777E-2,8.879511E-3,1.3734749E-1,3.9718002E-2,9.547498E-2,-8.0016114E-2,3.2766383E-2,-9.977009E-2,5.4892343E-3,1.1419573E-2,2.9002478E-2,-5.5844553E-2,2.0525744E-2,9.592326E-3,-8.13834E-3,-7.800626E-2,1.06125474E-1,-9.857313E-2,1.3327758E-1,-3.507928E-2,1.0564058E-1,-1.9932836E-2,-9.238198E-2,6.216982E-3],"split_indices":[1486,1903,565,1392,1749,707,2002,928,549,0,0,144,0,0,0,1788,685,1728,0,624,2013,0,0,0,0,0,0,0,0,0,0],"split_type":[0,0,0,0,0,0,0,0,0,0,0,0,0,0,0,0,0,0,0,0,0,0,0,0,0,0,0,0,0,0,0],"sum_hessian":[2.0244373E3,1.9184812E3,1.05956024E2,1.8781295E3,4.0351707E1,1.0224259E2,3.7134268E0,1.833196E3,4.49335E1,3.9275597E1,1.0761114E0,1.0022711E2,2.015484E0,1.0880307E0,2.625396E0,1.7710311E3,6.216483E1,4.3892525E1,1.0409745E0,9.7614136E1,2.612975E0,1.5865242E3,1.8450706E2,5.993007E1,2.2347598E0,4.2884224E1,1.008301E0,9.347982E1,4.134316E0,1.1914767E0,1.4214982E0],"tree_param":{"num_deleted":"0","num_feature":"2026","num_nodes":"31","size_leaf_vector":"1"}},{"base_weights":[-3.409746E-3,3.4767516E-2,-1.0740215E0,7.307683E-2,-1.0387265E-1,-1.2103814E0,8.387522E-1,1.058671E-1,-1.1829017E0,-1.2413344E0,3.7036363E-2,6.709219E-3,1.0283052E-1,1.4384848E-1,-1.024471E0,-1.231746E-1,4.0020928E-2,-1.268916E0,2.2217987E-2,1.8673886E-2,-9.0883814E-2,-9.10802E-3,-1.0731522E-1,-1.296127E-1,3.7565758E-3],"categories":[],"categories_nodes":[],"categories_segments":[],"categories_sizes":[],"default_left":[0,0,0,0,0,0,0,0,0,0,0,0,0,0,0,0,0,0,0,0,0,0,0,0,0],"id":38,"left_children":[1,3,5,7,-1,9,11,13,15,17,-1,-1,-1,19,21,-1,-1,23,-1,-1,-1,-1,-1,-1,-1],"loss_changes":[8.2037994E1,7.978074E1,1.9040565E1,7.723271E1,0E0,3.6361618E0,6.900842E-1,7.852168E1,4.182823E0,2.861412E0,0E0,0E0,0E0,7.995375E1,2.6045227E0,0E0,0E0,2.2837296E0,0E0,0E0,0E0,0E0,0E0,0E0,0E0],"parents":[2147483647,0,0,1,1,2,2,3,3,5,5,6,6,7,7,8,8,9,9,13,13,14,14,17,17],"right_children":[2,4,6,8,-1,10,12,14,16,18,-1,-1,-1,20,22,-1,-1,24,-1,-1,-1,-1,-1,-1,-1],"split_conditions":[7.6931063E-3,1.5058466E-2,6.414302E-2,2.5905007E-2,-1.0387265E-1,4.2300154E-2,3.9703447E-2,9.987615E-3,3.6680497E-2,9.1212474E-2,3.7036363E-2,6.709219E-3,1.0283052E-1,2.5402613E-2,3.8014185E0,-1.231746E-1,4.0020928E-2,4.2009767E-2,2.2217987E-2,1.8673886E-2,-9.0883814E-2,-9.10802E-3,-1.0731522E-1,-1.296127E-1,3.7565758E-3],"split_indices":[941,630,928,602,0,852,1490,1983,1144,1153,0,0,0,999,2002,0,0,1486,0,0,0,0,0,0,0],"split_type":[0,0,0,0,0,0,0,0,0,0,0,0,0,0,0,0,0,0,0,0,0,0,0,0,0],"sum_hessian":[2.005229E3,1.9371202E3,6.810882E1,1.8712728E3,6.584737E1,6.391928E1,4.1895375E0,1.8245542E3,4.671858E1,6.290229E1,1.0169921E0,1.0931859E0,3.0963514E0,1.7660834E3,5.847081E1,4.5535603E1,1.1829767E0,6.186926E1,1.0330307E0,1.697734E3,6.83494E1,3.0407E0,5.5430107E1,6.0614723E1,1.2545351E0],"tree_param":{"num_deleted":"0","num_feature":"2026","num_nodes":"25","size_leaf_vector":"1"}},{"base_weights":[-3.8333377E-3,2.507892E-2,-1.3671198E0,6.577223E-2,-9.3401116E-1,-1.4098324E0,1.1254867E-2,1.0109942E-1,-1.1148366E0,-1.0131663E0,8.889269E-2,-1.4331615E0,-2.6324255E-2,1.4311561E-1,-9.5824283E-1,-1.1301728E0,-1.9442616E-2,-1.0682391E0,5.919378E-1,-1.453391E-1,-3.426483E-2,1.8178768E-2,-1.0468864E-1,-1.12028636E-1,4.0072825E-2,-1.1442949E-1,-2.093356E-2,-1.1262687E-1,-3.4065846E-2,-1.7698159E-3,9.570641E-2],"categories":[],"categories_nodes":[],"categories_segments":[],"categories_sizes":[],"default_left":[0,0,0,0,0,0,0,0,0,0,0,0,0,0,0,0,0,0,0,0,0,0,0,0,0,0,0,0,0,0,0],"id":39,"left_children":[1,3,5,7,9,11,-1,13,15,17,-1,19,-1,21,23,25,-1,27,29,-1,-1,-1,-1,-1,-1,-1,-1,-1,-1,-1,-1],"loss_changes":[7.826025E1,7.594879E1,2.7646637E0,7.794739E1,1.2329834E1,6.9673157E-1,0E0,8.082831E1,5.4678345E-1,7.383995E0,0E0,3.6511993E-1,0E0,8.047677E1,1.5707657E1,4.523468E-1,0E0,2.749199E0,7.2414994E-1,0E0,0E0,0E0,0E0,0E0,0E0,0E0,0E0,0E0,0E0,0E0,0E0],"parents":[2147483647,0,0,1,1,2,2,3,3,4,4,5,5,7,7,8,8,9,9,11,11,13,13,14,14,15,15,17,17,18,18],"right_children":[2,4,6,8,10,12,-1,14,16,18,-1,20,-1,22,24,26,-1,28,30,-1,-1,-1,-1,-1,-1,-1,-1,-1,-1,-1,-1],"split_conditions":[1.8234974E-2,1.9988399E-2,3.747751E-2,1.3835987E-2,1.3625006E-2,2.4204643E-2,1.1254867E-2,9.996217E-3,1.0395354E-1,2.7815664E-2,8.889269E-2,3.9169807E-2,-2.6324255E-2,5.8452748E-2,8.017702E-3,2.567265E-1,-1.9442616E-2,2.2738624E-2,6.097941E-2,-1.453391E-1,-3.426483E-2,1.8178768E-2,-1.0468864E-1,-1.12028636E-1,4.0072825E-2,-1.1442949E-1,-2.093356E-2,-1.1262687E-1,-3.4065846E-2,-1.7698159E-3,9.570641E-2],"split_indices":[1744,1334,1392,1017,49,1246,0,1132,1310,96,0,1446,0,233,1456,1851,0,3,96,0,0,0,0,0,0,0,0,0,0,0,0],"split_type":[0,0,0,0,0,0,0,0,0,0,0,0,0,0,0,0,0,0,0,0,0,0,0,0,0,0,0,0,0,0,0],"sum_hessian":[1.9836403E3,1.9434065E3,4.0233707E1,1.8651992E3,7.820725E1,3.9150764E1,1.082943E0,1.8118965E3,5.3302753E1,7.53784E1,2.8288503E0,3.8125114E1,1.0256469E0,1.7436056E3,6.829092E1,5.220499E1,1.0977648E0,7.320126E1,2.1771357E0,3.710406E1,1.0210547E0,1.6895468E3,5.4058784E1,6.1172367E1,7.118546E0,5.1177464E1,1.0275257E0,6.728671E1,5.9145503E0,1.1719346E0,1.005201E0],"tree_param":{"num_deleted":"0","num_feature":"2026","num_nodes":"31","size_leaf_vector":"1"}},{"base_weights":[-4.2464463E-3,-3.6275264E-2,1.1685506E0,-7.528552E-2,9.763934E-1,1.2390529E0,-1.1232692E-1,-1.3268092E-2,-7.479747E-1,1.0256633E0,-1.0950889E-1,1.3056397E0,-7.5307444E-2,-6.609363E-2,7.972164E-1,-8.640353E-1,6.027726E-1,1.0709269E0,-6.475856E-2,1.3750293E0,4.906522E-1,-9.838855E-3,1.3258758E-1,8.5976966E-2,-1.1494398E-1,-9.3992665E-2,6.2067676E-2,8.604125E-2,-6.7903735E-2,1.1034272E-1,-4.810468E-2,1.4054485E-1,7.0331143E-3,-1.3435225E-2,8.984446E-2],"categories":[],"categories_nodes":[],"categories_segments":[],"categories_sizes":[],"default_left":[0,0,0,0,0,0,0,0,0,0,0,0,0,0,0,0,0,0,0,0,0,0,0,0,0,0,0,0,0,0,0,0,0,0,0],"id":40,"left_children":[1,3,5,7,9,11,-1,13,15,17,-1,19,-1,21,23,25,27,29,-1,31,33,-1,-1,-1,-1,-1,-1,-1,-1,-1,-1,-1,-1,-1,-1],"loss_changes":[7.386625E1,7.5686745E1,9.838425E0,7.691778E1,8.376671E0,7.773712E0,0E0,7.238054E1,2.491932E1,5.990219E0,0E0,2.1473236E0,0E0,7.146689E1,1.3584892E1,1.6778465E1,4.8455834E0,3.9843826E0,0E0,1.704216E0,1.5148892E0,0E0,0E0,0E0,0E0,0E0,0E0,0E0,0E0,0E0,0E0,0E0,0E0,0E0,0E0],"parents":[2147483647,0,0,1,1,2,2,3,3,4,4,5,5,7,7,8,8,9,9,11,11,13,13,14,14,15,15,16,16,17,17,19,19,20,20],"right_children":[2,4,6,8,10,12,-1,14,16,18,-1,20,-1,22,24,26,28,30,-1,32,34,-1,-1,-1,-1,-1,-1,-1,-1,-1,-1,-1,-1,-1,-1],"split_conditions":[7.7158585E-2,2.026366E-2,1.2823328E-2,5.906469E-3,2.904673E-2,9.987615E-3,-1.1232692E-1,8.759793E-2,8.08623E-2,9.891469E-3,-1.0950889E-1,3.06E2,-7.5307444E-2,7.672899E-2,1.6798963E-1,1.0286298E-1,3.239247E-2,1.835754E-2,-6.475856E-2,9.888729E-2,2.3335382E-2,-9.838855E-3,1.3258758E-1,8.5976966E-2,-1.1494398E-1,-9.3992665E-2,6.2067676E-2,8.604125E-2,-6.7903735E-2,1.1034272E-1,-4.810468E-2,1.4054485E-1,7.0331143E-3,-1.3435225E-2,8.984446E-2],"split_indices":[1428,568,545,803,854,1983,0,743,406,1745,0,2001,0,1903,702,3,1552,1874,0,1038,389,0,0,0,0,0,0,0,0,0,0,0,0,0,0],"split_type":[0,0,0,0,0,0,0,0,0,0,0,0,0,0,0,0,0,0,0,0,0,0,0,0,0,0,0,0,0,0,0,0,0,0,0],"sum_hessian":[1.9643186E3,1.913043E3,5.1275696E1,1.8429731E3,7.006977E1,5.0191048E1,1.0846473E0,1.6883394E3,1.5463383E2,6.8935036E1,1.1347407E0,4.8901127E1,1.2899189E0,1.5858928E3,1.0244645E2,1.427303E2,1.1903528E1,6.746985E1,1.4651825E0,4.4431007E1,4.470122E0,1.5508413E3,3.505156E1,9.979791E1,2.648539E0,1.3613849E2,6.591815E0,1.0185104E1,1.7184232E0,6.636902E1,1.1008312E0,4.3343235E1,1.0877702E0,2.0297523E0,2.4403694E0],"tree_param":{"num_deleted":"0","num_feature":"2026","num_nodes":"35","size_leaf_vector":"1"}},{"base_weights":[-3.6735404E-3,3.5953104E-2,-9.330021E-1,7.968618E-2,-9.0765524E-1,-1.0471951E0,4.8192102E-1,1.2212504E-1,-9.772128E-1,-9.655947E-1,8.3723396E-2,-1.1002669E0,7.552965E-2,-2.4887167E-2,